=== Run information ===

Scheme:       weka.classifiers.trees.RandomTree -K 0 -M 1.0 -V 0.001 -S 1
Relation:     twitter-troll-most10
Instances:    122637
Attributes:   13
              tweet-id
              user-id
              a
              and
              for
              in
              is
              of
              on
              the
              to
              you
              class
Test mode:    user supplied test set:  size unknown (reading incrementally)

=== Classifier model (full training set) ===


RandomTree
==========

the < 0.5
|   to < 0.5
|   |   user-id < 49.5
|   |   |   user-id < 35
|   |   |   |   of < 0.5
|   |   |   |   |   user-id < 28.5
|   |   |   |   |   |   on < 0.5
|   |   |   |   |   |   |   is < 0.5
|   |   |   |   |   |   |   |   user-id < 25
|   |   |   |   |   |   |   |   |   and < 0.5
|   |   |   |   |   |   |   |   |   |   for < 0.5
|   |   |   |   |   |   |   |   |   |   |   in < 0.5
|   |   |   |   |   |   |   |   |   |   |   |   tweet-id < 127464.5
|   |   |   |   |   |   |   |   |   |   |   |   |   a < 1.5
|   |   |   |   |   |   |   |   |   |   |   |   |   |   user-id < 17.5
|   |   |   |   |   |   |   |   |   |   |   |   |   |   |   a < 0.5
|   |   |   |   |   |   |   |   |   |   |   |   |   |   |   |   tweet-id < 15779.5
|   |   |   |   |   |   |   |   |   |   |   |   |   |   |   |   |   user-id < 9.5
|   |   |   |   |   |   |   |   |   |   |   |   |   |   |   |   |   |   user-id < 8
|   |   |   |   |   |   |   |   |   |   |   |   |   |   |   |   |   |   |   user-id < 3.5 : LeftTroll (3/0)
|   |   |   |   |   |   |   |   |   |   |   |   |   |   |   |   |   |   |   user-id >= 3.5 : Other (33/0)
|   |   |   |   |   |   |   |   |   |   |   |   |   |   |   |   |   |   user-id >= 8 : RightTroll (21/0)
|   |   |   |   |   |   |   |   |   |   |   |   |   |   |   |   |   user-id >= 9.5
|   |   |   |   |   |   |   |   |   |   |   |   |   |   |   |   |   |   user-id < 16.5 : Other (173/0)
|   |   |   |   |   |   |   |   |   |   |   |   |   |   |   |   |   |   user-id >= 16.5 : LeftTroll (1/0)
|   |   |   |   |   |   |   |   |   |   |   |   |   |   |   |   tweet-id >= 15779.5
|   |   |   |   |   |   |   |   |   |   |   |   |   |   |   |   |   user-id < 9.5
|   |   |   |   |   |   |   |   |   |   |   |   |   |   |   |   |   |   user-id < 8
|   |   |   |   |   |   |   |   |   |   |   |   |   |   |   |   |   |   |   tweet-id < 127367.5
|   |   |   |   |   |   |   |   |   |   |   |   |   |   |   |   |   |   |   |   user-id < 3.5 : LeftTroll (13/0)
|   |   |   |   |   |   |   |   |   |   |   |   |   |   |   |   |   |   |   |   user-id >= 3.5 : Other (155/0)
|   |   |   |   |   |   |   |   |   |   |   |   |   |   |   |   |   |   |   tweet-id >= 127367.5 : LeftTroll (1/0)
|   |   |   |   |   |   |   |   |   |   |   |   |   |   |   |   |   |   user-id >= 8 : RightTroll (136/0)
|   |   |   |   |   |   |   |   |   |   |   |   |   |   |   |   |   user-id >= 9.5
|   |   |   |   |   |   |   |   |   |   |   |   |   |   |   |   |   |   user-id < 16.5 : Other (675/0)
|   |   |   |   |   |   |   |   |   |   |   |   |   |   |   |   |   |   user-id >= 16.5 : LeftTroll (6/0)
|   |   |   |   |   |   |   |   |   |   |   |   |   |   |   a >= 0.5
|   |   |   |   |   |   |   |   |   |   |   |   |   |   |   |   user-id < 9.5
|   |   |   |   |   |   |   |   |   |   |   |   |   |   |   |   |   you < 0.5
|   |   |   |   |   |   |   |   |   |   |   |   |   |   |   |   |   |   tweet-id < 112928.5
|   |   |   |   |   |   |   |   |   |   |   |   |   |   |   |   |   |   |   user-id < 8
|   |   |   |   |   |   |   |   |   |   |   |   |   |   |   |   |   |   |   |   tweet-id < 17786
|   |   |   |   |   |   |   |   |   |   |   |   |   |   |   |   |   |   |   |   |   tweet-id < 17301 : LeftTroll (1/0)
|   |   |   |   |   |   |   |   |   |   |   |   |   |   |   |   |   |   |   |   |   tweet-id >= 17301 : Other (1/0)
|   |   |   |   |   |   |   |   |   |   |   |   |   |   |   |   |   |   |   |   tweet-id >= 17786 : LeftTroll (3/0)
|   |   |   |   |   |   |   |   |   |   |   |   |   |   |   |   |   |   |   user-id >= 8 : RightTroll (9/0)
|   |   |   |   |   |   |   |   |   |   |   |   |   |   |   |   |   |   tweet-id >= 112928.5 : RightTroll (16/0)
|   |   |   |   |   |   |   |   |   |   |   |   |   |   |   |   |   you >= 0.5 : RightTroll (2/0)
|   |   |   |   |   |   |   |   |   |   |   |   |   |   |   |   user-id >= 9.5
|   |   |   |   |   |   |   |   |   |   |   |   |   |   |   |   |   user-id < 14.5 : Other (133/0)
|   |   |   |   |   |   |   |   |   |   |   |   |   |   |   |   |   user-id >= 14.5 : LeftTroll (1/0)
|   |   |   |   |   |   |   |   |   |   |   |   |   |   user-id >= 17.5 : RightTroll (262/0)
|   |   |   |   |   |   |   |   |   |   |   |   |   a >= 1.5
|   |   |   |   |   |   |   |   |   |   |   |   |   |   a < 3
|   |   |   |   |   |   |   |   |   |   |   |   |   |   |   tweet-id < 125790
|   |   |   |   |   |   |   |   |   |   |   |   |   |   |   |   user-id < 10.5 : RightTroll (2/0)
|   |   |   |   |   |   |   |   |   |   |   |   |   |   |   |   user-id >= 10.5
|   |   |   |   |   |   |   |   |   |   |   |   |   |   |   |   |   tweet-id < 13144 : Other (2/0)
|   |   |   |   |   |   |   |   |   |   |   |   |   |   |   |   |   tweet-id >= 13144
|   |   |   |   |   |   |   |   |   |   |   |   |   |   |   |   |   |   tweet-id < 15038.5 : RightTroll (1/0)
|   |   |   |   |   |   |   |   |   |   |   |   |   |   |   |   |   |   tweet-id >= 15038.5
|   |   |   |   |   |   |   |   |   |   |   |   |   |   |   |   |   |   |   tweet-id < 115927 : Other (2/0)
|   |   |   |   |   |   |   |   |   |   |   |   |   |   |   |   |   |   |   tweet-id >= 115927
|   |   |   |   |   |   |   |   |   |   |   |   |   |   |   |   |   |   |   |   you < 0.5 : RightTroll (1/0)
|   |   |   |   |   |   |   |   |   |   |   |   |   |   |   |   |   |   |   |   you >= 0.5 : Other (1/0)
|   |   |   |   |   |   |   |   |   |   |   |   |   |   |   tweet-id >= 125790 : LeftTroll (2/0)
|   |   |   |   |   |   |   |   |   |   |   |   |   |   a >= 3 : Other (1/0)
|   |   |   |   |   |   |   |   |   |   |   |   tweet-id >= 127464.5
|   |   |   |   |   |   |   |   |   |   |   |   |   you < 0.5
|   |   |   |   |   |   |   |   |   |   |   |   |   |   user-id < 18
|   |   |   |   |   |   |   |   |   |   |   |   |   |   |   user-id < 9.5
|   |   |   |   |   |   |   |   |   |   |   |   |   |   |   |   user-id < 7.5
|   |   |   |   |   |   |   |   |   |   |   |   |   |   |   |   |   a < 0.5
|   |   |   |   |   |   |   |   |   |   |   |   |   |   |   |   |   |   tweet-id < 134087.5 : Other (55/0)
|   |   |   |   |   |   |   |   |   |   |   |   |   |   |   |   |   |   tweet-id >= 134087.5
|   |   |   |   |   |   |   |   |   |   |   |   |   |   |   |   |   |   |   user-id < 3.5 : LeftTroll (44/0)
|   |   |   |   |   |   |   |   |   |   |   |   |   |   |   |   |   |   |   user-id >= 3.5 : Other (769/0)
|   |   |   |   |   |   |   |   |   |   |   |   |   |   |   |   |   a >= 0.5
|   |   |   |   |   |   |   |   |   |   |   |   |   |   |   |   |   |   a < 2
|   |   |   |   |   |   |   |   |   |   |   |   |   |   |   |   |   |   |   tweet-id < 173114.5
|   |   |   |   |   |   |   |   |   |   |   |   |   |   |   |   |   |   |   |   user-id < 3.5 : LeftTroll (7/0)
|   |   |   |   |   |   |   |   |   |   |   |   |   |   |   |   |   |   |   |   user-id >= 3.5 : Other (1/0)
|   |   |   |   |   |   |   |   |   |   |   |   |   |   |   |   |   |   |   tweet-id >= 173114.5
|   |   |   |   |   |   |   |   |   |   |   |   |   |   |   |   |   |   |   |   user-id < 3.5 : LeftTroll (3/0)
|   |   |   |   |   |   |   |   |   |   |   |   |   |   |   |   |   |   |   |   user-id >= 3.5 : Other (5/0)
|   |   |   |   |   |   |   |   |   |   |   |   |   |   |   |   |   |   a >= 2 : LeftTroll (1/0)
|   |   |   |   |   |   |   |   |   |   |   |   |   |   |   |   user-id >= 7.5 : RightTroll (624/0)
|   |   |   |   |   |   |   |   |   |   |   |   |   |   |   user-id >= 9.5
|   |   |   |   |   |   |   |   |   |   |   |   |   |   |   |   a < 1.5
|   |   |   |   |   |   |   |   |   |   |   |   |   |   |   |   |   a < 0.5
|   |   |   |   |   |   |   |   |   |   |   |   |   |   |   |   |   |   user-id < 16.5 : Other (2805/0)
|   |   |   |   |   |   |   |   |   |   |   |   |   |   |   |   |   |   user-id >= 16.5 : LeftTroll (9/0)
|   |   |   |   |   |   |   |   |   |   |   |   |   |   |   |   |   a >= 0.5
|   |   |   |   |   |   |   |   |   |   |   |   |   |   |   |   |   |   user-id < 14.5 : Other (365/0)
|   |   |   |   |   |   |   |   |   |   |   |   |   |   |   |   |   |   user-id >= 14.5 : LeftTroll (1/0)
|   |   |   |   |   |   |   |   |   |   |   |   |   |   |   |   a >= 1.5 : Other (33/0)
|   |   |   |   |   |   |   |   |   |   |   |   |   |   user-id >= 18
|   |   |   |   |   |   |   |   |   |   |   |   |   |   |   tweet-id < 132766.5
|   |   |   |   |   |   |   |   |   |   |   |   |   |   |   |   tweet-id < 132546.5 : RightTroll (43/0)
|   |   |   |   |   |   |   |   |   |   |   |   |   |   |   |   tweet-id >= 132546.5 : Other (1/0)
|   |   |   |   |   |   |   |   |   |   |   |   |   |   |   tweet-id >= 132766.5
|   |   |   |   |   |   |   |   |   |   |   |   |   |   |   |   user-id < 19.5
|   |   |   |   |   |   |   |   |   |   |   |   |   |   |   |   |   tweet-id < 182675.5 : RightTroll (52/0)
|   |   |   |   |   |   |   |   |   |   |   |   |   |   |   |   |   tweet-id >= 182675.5
|   |   |   |   |   |   |   |   |   |   |   |   |   |   |   |   |   |   tweet-id < 183557 : Other (1/0)
|   |   |   |   |   |   |   |   |   |   |   |   |   |   |   |   |   |   tweet-id >= 183557 : RightTroll (48/0)
|   |   |   |   |   |   |   |   |   |   |   |   |   |   |   |   user-id >= 19.5 : RightTroll (700/0)
|   |   |   |   |   |   |   |   |   |   |   |   |   you >= 0.5
|   |   |   |   |   |   |   |   |   |   |   |   |   |   user-id < 10.5
|   |   |   |   |   |   |   |   |   |   |   |   |   |   |   you < 1.5
|   |   |   |   |   |   |   |   |   |   |   |   |   |   |   |   user-id < 5.5 : LeftTroll (1/0)
|   |   |   |   |   |   |   |   |   |   |   |   |   |   |   |   user-id >= 5.5 : RightTroll (30/0)
|   |   |   |   |   |   |   |   |   |   |   |   |   |   |   you >= 1.5 : RightTroll (6/0)
|   |   |   |   |   |   |   |   |   |   |   |   |   |   user-id >= 10.5
|   |   |   |   |   |   |   |   |   |   |   |   |   |   |   user-id < 16.5 : Other (338/0)
|   |   |   |   |   |   |   |   |   |   |   |   |   |   |   user-id >= 16.5
|   |   |   |   |   |   |   |   |   |   |   |   |   |   |   |   tweet-id < 1115629
|   |   |   |   |   |   |   |   |   |   |   |   |   |   |   |   |   tweet-id < 156812
|   |   |   |   |   |   |   |   |   |   |   |   |   |   |   |   |   |   tweet-id < 148919 : RightTroll (4/0)
|   |   |   |   |   |   |   |   |   |   |   |   |   |   |   |   |   |   tweet-id >= 148919
|   |   |   |   |   |   |   |   |   |   |   |   |   |   |   |   |   |   |   user-id < 20 : LeftTroll (2/0)
|   |   |   |   |   |   |   |   |   |   |   |   |   |   |   |   |   |   |   user-id >= 20 : RightTroll (1/0)
|   |   |   |   |   |   |   |   |   |   |   |   |   |   |   |   |   tweet-id >= 156812 : RightTroll (12/0)
|   |   |   |   |   |   |   |   |   |   |   |   |   |   |   |   tweet-id >= 1115629 : LeftTroll (1/0)
|   |   |   |   |   |   |   |   |   |   |   in >= 0.5
|   |   |   |   |   |   |   |   |   |   |   |   a < 0.5
|   |   |   |   |   |   |   |   |   |   |   |   |   user-id < 10.5
|   |   |   |   |   |   |   |   |   |   |   |   |   |   user-id < 5.5 : LeftTroll (10/0)
|   |   |   |   |   |   |   |   |   |   |   |   |   |   user-id >= 5.5 : RightTroll (153/0)
|   |   |   |   |   |   |   |   |   |   |   |   |   user-id >= 10.5
|   |   |   |   |   |   |   |   |   |   |   |   |   |   you < 0.5
|   |   |   |   |   |   |   |   |   |   |   |   |   |   |   user-id < 14.5 : Other (195/0)
|   |   |   |   |   |   |   |   |   |   |   |   |   |   |   user-id >= 14.5
|   |   |   |   |   |   |   |   |   |   |   |   |   |   |   |   user-id < 18 : LeftTroll (1/0)
|   |   |   |   |   |   |   |   |   |   |   |   |   |   |   |   user-id >= 18 : RightTroll (138/0)
|   |   |   |   |   |   |   |   |   |   |   |   |   |   you >= 0.5
|   |   |   |   |   |   |   |   |   |   |   |   |   |   |   tweet-id < 161044.5
|   |   |   |   |   |   |   |   |   |   |   |   |   |   |   |   tweet-id < 156282.5
|   |   |   |   |   |   |   |   |   |   |   |   |   |   |   |   |   you < 1.5 : Other (9/0)
|   |   |   |   |   |   |   |   |   |   |   |   |   |   |   |   |   you >= 1.5
|   |   |   |   |   |   |   |   |   |   |   |   |   |   |   |   |   |   user-id < 17.5 : Other (1/0)
|   |   |   |   |   |   |   |   |   |   |   |   |   |   |   |   |   |   user-id >= 17.5 : RightTroll (1/0)
|   |   |   |   |   |   |   |   |   |   |   |   |   |   |   |   tweet-id >= 156282.5 : RightTroll (1/0)
|   |   |   |   |   |   |   |   |   |   |   |   |   |   |   tweet-id >= 161044.5 : Other (14/0)
|   |   |   |   |   |   |   |   |   |   |   |   a >= 0.5
|   |   |   |   |   |   |   |   |   |   |   |   |   user-id < 18
|   |   |   |   |   |   |   |   |   |   |   |   |   |   user-id < 10.5
|   |   |   |   |   |   |   |   |   |   |   |   |   |   |   user-id < 5.5 : LeftTroll (1/0)
|   |   |   |   |   |   |   |   |   |   |   |   |   |   |   user-id >= 5.5 : RightTroll (17/0)
|   |   |   |   |   |   |   |   |   |   |   |   |   |   user-id >= 10.5
|   |   |   |   |   |   |   |   |   |   |   |   |   |   |   tweet-id < 189423.5 : Other (47/0)
|   |   |   |   |   |   |   |   |   |   |   |   |   |   |   tweet-id >= 189423.5
|   |   |   |   |   |   |   |   |   |   |   |   |   |   |   |   tweet-id < 191007.5 : LeftTroll (1/0)
|   |   |   |   |   |   |   |   |   |   |   |   |   |   |   |   tweet-id >= 191007.5 : Other (18/0)
|   |   |   |   |   |   |   |   |   |   |   |   |   user-id >= 18 : RightTroll (25/0)
|   |   |   |   |   |   |   |   |   |   for >= 0.5
|   |   |   |   |   |   |   |   |   |   |   user-id < 17.5
|   |   |   |   |   |   |   |   |   |   |   |   user-id < 10.5
|   |   |   |   |   |   |   |   |   |   |   |   |   tweet-id < 185815.5
|   |   |   |   |   |   |   |   |   |   |   |   |   |   tweet-id < 185623.5
|   |   |   |   |   |   |   |   |   |   |   |   |   |   |   tweet-id < 178930.5
|   |   |   |   |   |   |   |   |   |   |   |   |   |   |   |   you < 0.5
|   |   |   |   |   |   |   |   |   |   |   |   |   |   |   |   |   tweet-id < 177860
|   |   |   |   |   |   |   |   |   |   |   |   |   |   |   |   |   |   user-id < 5 : LeftTroll (10/0)
|   |   |   |   |   |   |   |   |   |   |   |   |   |   |   |   |   |   user-id >= 5 : RightTroll (84/0)
|   |   |   |   |   |   |   |   |   |   |   |   |   |   |   |   |   tweet-id >= 177860 : LeftTroll (2/0)
|   |   |   |   |   |   |   |   |   |   |   |   |   |   |   |   you >= 0.5
|   |   |   |   |   |   |   |   |   |   |   |   |   |   |   |   |   user-id < 5.5 : LeftTroll (2/0)
|   |   |   |   |   |   |   |   |   |   |   |   |   |   |   |   |   user-id >= 5.5 : RightTroll (3/0)
|   |   |   |   |   |   |   |   |   |   |   |   |   |   |   tweet-id >= 178930.5 : RightTroll (11/0)
|   |   |   |   |   |   |   |   |   |   |   |   |   |   tweet-id >= 185623.5 : LeftTroll (1/0)
|   |   |   |   |   |   |   |   |   |   |   |   |   tweet-id >= 185815.5
|   |   |   |   |   |   |   |   |   |   |   |   |   |   tweet-id < 1109471 : RightTroll (34/0)
|   |   |   |   |   |   |   |   |   |   |   |   |   |   tweet-id >= 1109471
|   |   |   |   |   |   |   |   |   |   |   |   |   |   |   a < 0.5 : RightTroll (10/0)
|   |   |   |   |   |   |   |   |   |   |   |   |   |   |   a >= 0.5
|   |   |   |   |   |   |   |   |   |   |   |   |   |   |   |   tweet-id < 1111582.5 : LeftTroll (1/0)
|   |   |   |   |   |   |   |   |   |   |   |   |   |   |   |   tweet-id >= 1111582.5 : RightTroll (2/0)
|   |   |   |   |   |   |   |   |   |   |   |   user-id >= 10.5
|   |   |   |   |   |   |   |   |   |   |   |   |   user-id < 16.5 : Other (305/0)
|   |   |   |   |   |   |   |   |   |   |   |   |   user-id >= 16.5 : LeftTroll (4/0)
|   |   |   |   |   |   |   |   |   |   |   user-id >= 17.5 : RightTroll (244/0)
|   |   |   |   |   |   |   |   |   and >= 0.5
|   |   |   |   |   |   |   |   |   |   tweet-id < 11823
|   |   |   |   |   |   |   |   |   |   |   you < 0.5
|   |   |   |   |   |   |   |   |   |   |   |   a < 0.5
|   |   |   |   |   |   |   |   |   |   |   |   |   user-id < 15.5 : Other (1/0)
|   |   |   |   |   |   |   |   |   |   |   |   |   user-id >= 15.5 : RightTroll (5/0)
|   |   |   |   |   |   |   |   |   |   |   |   a >= 0.5 : LeftTroll (1/0)
|   |   |   |   |   |   |   |   |   |   |   you >= 0.5
|   |   |   |   |   |   |   |   |   |   |   |   for < 0.5 : RightTroll (1/0)
|   |   |   |   |   |   |   |   |   |   |   |   for >= 0.5 : Other (1/0)
|   |   |   |   |   |   |   |   |   |   tweet-id >= 11823
|   |   |   |   |   |   |   |   |   |   |   a < 0.5
|   |   |   |   |   |   |   |   |   |   |   |   and < 2.5
|   |   |   |   |   |   |   |   |   |   |   |   |   user-id < 18
|   |   |   |   |   |   |   |   |   |   |   |   |   |   user-id < 10.5
|   |   |   |   |   |   |   |   |   |   |   |   |   |   |   user-id < 5.5 : LeftTroll (7/0)
|   |   |   |   |   |   |   |   |   |   |   |   |   |   |   user-id >= 5.5 : RightTroll (105/0)
|   |   |   |   |   |   |   |   |   |   |   |   |   |   user-id >= 10.5
|   |   |   |   |   |   |   |   |   |   |   |   |   |   |   tweet-id < 147698.5
|   |   |   |   |   |   |   |   |   |   |   |   |   |   |   |   tweet-id < 146219
|   |   |   |   |   |   |   |   |   |   |   |   |   |   |   |   |   you < 0.5
|   |   |   |   |   |   |   |   |   |   |   |   |   |   |   |   |   |   user-id < 14.5 : Other (110/0)
|   |   |   |   |   |   |   |   |   |   |   |   |   |   |   |   |   |   user-id >= 14.5 : LeftTroll (1/0)
|   |   |   |   |   |   |   |   |   |   |   |   |   |   |   |   |   you >= 0.5 : Other (16/0)
|   |   |   |   |   |   |   |   |   |   |   |   |   |   |   |   tweet-id >= 146219
|   |   |   |   |   |   |   |   |   |   |   |   |   |   |   |   |   user-id < 14.5 : Other (1/0)
|   |   |   |   |   |   |   |   |   |   |   |   |   |   |   |   |   user-id >= 14.5 : LeftTroll (2/0)
|   |   |   |   |   |   |   |   |   |   |   |   |   |   |   tweet-id >= 147698.5 : Other (196/0)
|   |   |   |   |   |   |   |   |   |   |   |   |   user-id >= 18 : RightTroll (148/0)
|   |   |   |   |   |   |   |   |   |   |   |   and >= 2.5 : Other (2/0)
|   |   |   |   |   |   |   |   |   |   |   a >= 0.5
|   |   |   |   |   |   |   |   |   |   |   |   user-id < 10.5
|   |   |   |   |   |   |   |   |   |   |   |   |   you < 0.5
|   |   |   |   |   |   |   |   |   |   |   |   |   |   in < 0.5 : RightTroll (17/0)
|   |   |   |   |   |   |   |   |   |   |   |   |   |   in >= 0.5
|   |   |   |   |   |   |   |   |   |   |   |   |   |   |   for < 0.5
|   |   |   |   |   |   |   |   |   |   |   |   |   |   |   |   user-id < 5.5 : LeftTroll (1/0)
|   |   |   |   |   |   |   |   |   |   |   |   |   |   |   |   user-id >= 5.5 : RightTroll (5/0)
|   |   |   |   |   |   |   |   |   |   |   |   |   |   |   for >= 0.5 : RightTroll (2/0)
|   |   |   |   |   |   |   |   |   |   |   |   |   you >= 0.5 : RightTroll (5/0)
|   |   |   |   |   |   |   |   |   |   |   |   user-id >= 10.5
|   |   |   |   |   |   |   |   |   |   |   |   |   and < 1.5
|   |   |   |   |   |   |   |   |   |   |   |   |   |   tweet-id < 121230.5
|   |   |   |   |   |   |   |   |   |   |   |   |   |   |   in < 0.5
|   |   |   |   |   |   |   |   |   |   |   |   |   |   |   |   user-id < 14.5 : Other (13/0)
|   |   |   |   |   |   |   |   |   |   |   |   |   |   |   |   user-id >= 14.5 : LeftTroll (1/0)
|   |   |   |   |   |   |   |   |   |   |   |   |   |   |   in >= 0.5 : Other (3/0)
|   |   |   |   |   |   |   |   |   |   |   |   |   |   tweet-id >= 121230.5
|   |   |   |   |   |   |   |   |   |   |   |   |   |   |   you < 0.5
|   |   |   |   |   |   |   |   |   |   |   |   |   |   |   |   for < 0.5
|   |   |   |   |   |   |   |   |   |   |   |   |   |   |   |   |   tweet-id < 138596 : Other (9/0)
|   |   |   |   |   |   |   |   |   |   |   |   |   |   |   |   |   tweet-id >= 138596
|   |   |   |   |   |   |   |   |   |   |   |   |   |   |   |   |   |   user-id < 15.5 : Other (55/0)
|   |   |   |   |   |   |   |   |   |   |   |   |   |   |   |   |   |   user-id >= 15.5 : RightTroll (14/0)
|   |   |   |   |   |   |   |   |   |   |   |   |   |   |   |   for >= 0.5
|   |   |   |   |   |   |   |   |   |   |   |   |   |   |   |   |   user-id < 17.5 : Other (4/0)
|   |   |   |   |   |   |   |   |   |   |   |   |   |   |   |   |   user-id >= 17.5 : RightTroll (3/0)
|   |   |   |   |   |   |   |   |   |   |   |   |   |   |   you >= 0.5
|   |   |   |   |   |   |   |   |   |   |   |   |   |   |   |   user-id < 17.5 : Other (17/0)
|   |   |   |   |   |   |   |   |   |   |   |   |   |   |   |   user-id >= 17.5 : RightTroll (1/0)
|   |   |   |   |   |   |   |   |   |   |   |   |   and >= 1.5
|   |   |   |   |   |   |   |   |   |   |   |   |   |   for < 0.5 : Other (9/0)
|   |   |   |   |   |   |   |   |   |   |   |   |   |   for >= 0.5 : RightTroll (1/0)
|   |   |   |   |   |   |   |   user-id >= 25 : Other (3032/0)
|   |   |   |   |   |   |   is >= 0.5
|   |   |   |   |   |   |   |   and < 1.5
|   |   |   |   |   |   |   |   |   you < 0.5
|   |   |   |   |   |   |   |   |   |   tweet-id < 1115614
|   |   |   |   |   |   |   |   |   |   |   is < 1.5
|   |   |   |   |   |   |   |   |   |   |   |   for < 0.5
|   |   |   |   |   |   |   |   |   |   |   |   |   user-id < 10.5
|   |   |   |   |   |   |   |   |   |   |   |   |   |   a < 0.5 : RightTroll (92/0)
|   |   |   |   |   |   |   |   |   |   |   |   |   |   a >= 0.5
|   |   |   |   |   |   |   |   |   |   |   |   |   |   |   user-id < 5.5 : LeftTroll (2/0)
|   |   |   |   |   |   |   |   |   |   |   |   |   |   |   user-id >= 5.5 : RightTroll (25/0)
|   |   |   |   |   |   |   |   |   |   |   |   |   user-id >= 10.5
|   |   |   |   |   |   |   |   |   |   |   |   |   |   user-id < 14.5 : Other (278/0)
|   |   |   |   |   |   |   |   |   |   |   |   |   |   user-id >= 14.5
|   |   |   |   |   |   |   |   |   |   |   |   |   |   |   a < 0.5
|   |   |   |   |   |   |   |   |   |   |   |   |   |   |   |   user-id < 25
|   |   |   |   |   |   |   |   |   |   |   |   |   |   |   |   |   user-id < 18 : LeftTroll (2/0)
|   |   |   |   |   |   |   |   |   |   |   |   |   |   |   |   |   user-id >= 18 : RightTroll (127/0)
|   |   |   |   |   |   |   |   |   |   |   |   |   |   |   |   user-id >= 25 : Other (93/0)
|   |   |   |   |   |   |   |   |   |   |   |   |   |   |   a >= 0.5
|   |   |   |   |   |   |   |   |   |   |   |   |   |   |   |   tweet-id < 193634.5 : RightTroll (13/0)
|   |   |   |   |   |   |   |   |   |   |   |   |   |   |   |   tweet-id >= 193634.5
|   |   |   |   |   |   |   |   |   |   |   |   |   |   |   |   |   tweet-id < 197029 : LeftTroll (1/0)
|   |   |   |   |   |   |   |   |   |   |   |   |   |   |   |   |   tweet-id >= 197029 : RightTroll (4/0)
|   |   |   |   |   |   |   |   |   |   |   |   for >= 0.5
|   |   |   |   |   |   |   |   |   |   |   |   |   in < 1.5
|   |   |   |   |   |   |   |   |   |   |   |   |   |   tweet-id < 144879
|   |   |   |   |   |   |   |   |   |   |   |   |   |   |   in < 0.5
|   |   |   |   |   |   |   |   |   |   |   |   |   |   |   |   user-id < 15.5
|   |   |   |   |   |   |   |   |   |   |   |   |   |   |   |   |   user-id < 10.5 : RightTroll (8/0)
|   |   |   |   |   |   |   |   |   |   |   |   |   |   |   |   |   user-id >= 10.5 : Other (5/0)
|   |   |   |   |   |   |   |   |   |   |   |   |   |   |   |   user-id >= 15.5 : RightTroll (9/0)
|   |   |   |   |   |   |   |   |   |   |   |   |   |   |   in >= 0.5 : RightTroll (2/0)
|   |   |   |   |   |   |   |   |   |   |   |   |   |   tweet-id >= 144879
|   |   |   |   |   |   |   |   |   |   |   |   |   |   |   user-id < 10.5
|   |   |   |   |   |   |   |   |   |   |   |   |   |   |   |   user-id < 5.5 : LeftTroll (2/0)
|   |   |   |   |   |   |   |   |   |   |   |   |   |   |   |   user-id >= 5.5 : RightTroll (8/0)
|   |   |   |   |   |   |   |   |   |   |   |   |   |   |   user-id >= 10.5
|   |   |   |   |   |   |   |   |   |   |   |   |   |   |   |   user-id < 17.5 : Other (18/0)
|   |   |   |   |   |   |   |   |   |   |   |   |   |   |   |   user-id >= 17.5 : RightTroll (10/0)
|   |   |   |   |   |   |   |   |   |   |   |   |   in >= 1.5 : RightTroll (1/0)
|   |   |   |   |   |   |   |   |   |   |   is >= 1.5
|   |   |   |   |   |   |   |   |   |   |   |   and < 0.5
|   |   |   |   |   |   |   |   |   |   |   |   |   user-id < 10.5
|   |   |   |   |   |   |   |   |   |   |   |   |   |   is < 2.5
|   |   |   |   |   |   |   |   |   |   |   |   |   |   |   user-id < 5.5 : LeftTroll (1/0)
|   |   |   |   |   |   |   |   |   |   |   |   |   |   |   user-id >= 5.5 : RightTroll (8/0)
|   |   |   |   |   |   |   |   |   |   |   |   |   |   is >= 2.5 : RightTroll (1/0)
|   |   |   |   |   |   |   |   |   |   |   |   |   user-id >= 10.5
|   |   |   |   |   |   |   |   |   |   |   |   |   |   tweet-id < 184011.5
|   |   |   |   |   |   |   |   |   |   |   |   |   |   |   user-id < 14.5 : Other (5/0)
|   |   |   |   |   |   |   |   |   |   |   |   |   |   |   user-id >= 14.5
|   |   |   |   |   |   |   |   |   |   |   |   |   |   |   |   tweet-id < 136476.5 : LeftTroll (1/0)
|   |   |   |   |   |   |   |   |   |   |   |   |   |   |   |   tweet-id >= 136476.5 : Other (2/0)
|   |   |   |   |   |   |   |   |   |   |   |   |   |   tweet-id >= 184011.5
|   |   |   |   |   |   |   |   |   |   |   |   |   |   |   a < 1.5
|   |   |   |   |   |   |   |   |   |   |   |   |   |   |   |   a < 0.5
|   |   |   |   |   |   |   |   |   |   |   |   |   |   |   |   |   in < 0.5
|   |   |   |   |   |   |   |   |   |   |   |   |   |   |   |   |   |   tweet-id < 194646 : RightTroll (2/0)
|   |   |   |   |   |   |   |   |   |   |   |   |   |   |   |   |   |   tweet-id >= 194646
|   |   |   |   |   |   |   |   |   |   |   |   |   |   |   |   |   |   |   tweet-id < 651721.5 : Other (1/0)
|   |   |   |   |   |   |   |   |   |   |   |   |   |   |   |   |   |   |   tweet-id >= 651721.5 : RightTroll (1/0)
|   |   |   |   |   |   |   |   |   |   |   |   |   |   |   |   |   in >= 0.5 : Other (1/0)
|   |   |   |   |   |   |   |   |   |   |   |   |   |   |   |   a >= 0.5 : Other (1/0)
|   |   |   |   |   |   |   |   |   |   |   |   |   |   |   a >= 1.5 : LeftTroll (1/0)
|   |   |   |   |   |   |   |   |   |   |   |   and >= 0.5 : RightTroll (4/0)
|   |   |   |   |   |   |   |   |   |   tweet-id >= 1115614
|   |   |   |   |   |   |   |   |   |   |   and < 0.5
|   |   |   |   |   |   |   |   |   |   |   |   user-id < 10.5
|   |   |   |   |   |   |   |   |   |   |   |   |   user-id < 5.5 : LeftTroll (1/0)
|   |   |   |   |   |   |   |   |   |   |   |   |   user-id >= 5.5 : RightTroll (2/0)
|   |   |   |   |   |   |   |   |   |   |   |   user-id >= 10.5
|   |   |   |   |   |   |   |   |   |   |   |   |   user-id < 15.5 : Other (15/0)
|   |   |   |   |   |   |   |   |   |   |   |   |   user-id >= 15.5
|   |   |   |   |   |   |   |   |   |   |   |   |   |   user-id < 25 : RightTroll (6/0)
|   |   |   |   |   |   |   |   |   |   |   |   |   |   user-id >= 25 : Other (13/0)
|   |   |   |   |   |   |   |   |   |   |   and >= 0.5 : Other (4/0)
|   |   |   |   |   |   |   |   |   you >= 0.5
|   |   |   |   |   |   |   |   |   |   and < 0.5
|   |   |   |   |   |   |   |   |   |   |   a < 1.5
|   |   |   |   |   |   |   |   |   |   |   |   user-id < 10.5 : RightTroll (12/0)
|   |   |   |   |   |   |   |   |   |   |   |   user-id >= 10.5
|   |   |   |   |   |   |   |   |   |   |   |   |   tweet-id < 158152.5
|   |   |   |   |   |   |   |   |   |   |   |   |   |   in < 0.5
|   |   |   |   |   |   |   |   |   |   |   |   |   |   |   tweet-id < 15060.5 : RightTroll (1/0)
|   |   |   |   |   |   |   |   |   |   |   |   |   |   |   tweet-id >= 15060.5
|   |   |   |   |   |   |   |   |   |   |   |   |   |   |   |   tweet-id < 156186
|   |   |   |   |   |   |   |   |   |   |   |   |   |   |   |   |   tweet-id < 120440.5
|   |   |   |   |   |   |   |   |   |   |   |   |   |   |   |   |   |   user-id < 17.5 : Other (3/0)
|   |   |   |   |   |   |   |   |   |   |   |   |   |   |   |   |   |   user-id >= 17.5 : RightTroll (1/0)
|   |   |   |   |   |   |   |   |   |   |   |   |   |   |   |   |   tweet-id >= 120440.5 : Other (9/0)
|   |   |   |   |   |   |   |   |   |   |   |   |   |   |   |   tweet-id >= 156186 : RightTroll (1/0)
|   |   |   |   |   |   |   |   |   |   |   |   |   |   in >= 0.5
|   |   |   |   |   |   |   |   |   |   |   |   |   |   |   tweet-id < 147104 : Other (1/0)
|   |   |   |   |   |   |   |   |   |   |   |   |   |   |   tweet-id >= 147104 : RightTroll (1/0)
|   |   |   |   |   |   |   |   |   |   |   |   |   tweet-id >= 158152.5 : Other (19/0)
|   |   |   |   |   |   |   |   |   |   |   a >= 1.5 : Other (4/0)
|   |   |   |   |   |   |   |   |   |   and >= 0.5 : Other (8/0)
|   |   |   |   |   |   |   |   and >= 1.5 : Other (5/0)
|   |   |   |   |   |   on >= 0.5
|   |   |   |   |   |   |   you < 0.5
|   |   |   |   |   |   |   |   user-id < 18
|   |   |   |   |   |   |   |   |   user-id < 9.5
|   |   |   |   |   |   |   |   |   |   tweet-id < 157166.5
|   |   |   |   |   |   |   |   |   |   |   tweet-id < 155231.5
|   |   |   |   |   |   |   |   |   |   |   |   for < 0.5
|   |   |   |   |   |   |   |   |   |   |   |   |   user-id < 7
|   |   |   |   |   |   |   |   |   |   |   |   |   |   user-id < 3.5 : LeftTroll (4/0)
|   |   |   |   |   |   |   |   |   |   |   |   |   |   user-id >= 3.5 : Other (1/0)
|   |   |   |   |   |   |   |   |   |   |   |   |   user-id >= 7 : RightTroll (49/0)
|   |   |   |   |   |   |   |   |   |   |   |   for >= 0.5 : RightTroll (5/0)
|   |   |   |   |   |   |   |   |   |   |   tweet-id >= 155231.5
|   |   |   |   |   |   |   |   |   |   |   |   user-id < 5.5 : LeftTroll (2/0)
|   |   |   |   |   |   |   |   |   |   |   |   user-id >= 5.5 : RightTroll (1/0)
|   |   |   |   |   |   |   |   |   |   tweet-id >= 157166.5
|   |   |   |   |   |   |   |   |   |   |   user-id < 5.5 : LeftTroll (3/0)
|   |   |   |   |   |   |   |   |   |   |   user-id >= 5.5 : RightTroll (85/0)
|   |   |   |   |   |   |   |   |   user-id >= 9.5
|   |   |   |   |   |   |   |   |   |   in < 0.5 : Other (186/0)
|   |   |   |   |   |   |   |   |   |   in >= 0.5
|   |   |   |   |   |   |   |   |   |   |   user-id < 14.5 : Other (12/0)
|   |   |   |   |   |   |   |   |   |   |   user-id >= 14.5 : LeftTroll (2/0)
|   |   |   |   |   |   |   |   user-id >= 18
|   |   |   |   |   |   |   |   |   user-id < 25.5
|   |   |   |   |   |   |   |   |   |   tweet-id < 1112148.5 : RightTroll (203/0)
|   |   |   |   |   |   |   |   |   |   tweet-id >= 1112148.5
|   |   |   |   |   |   |   |   |   |   |   a < 0.5
|   |   |   |   |   |   |   |   |   |   |   |   tweet-id < 1113353 : Other (1/0)
|   |   |   |   |   |   |   |   |   |   |   |   tweet-id >= 1113353 : RightTroll (16/0)
|   |   |   |   |   |   |   |   |   |   |   a >= 0.5 : RightTroll (2/0)
|   |   |   |   |   |   |   |   |   user-id >= 25.5 : Other (2/0)
|   |   |   |   |   |   |   you >= 0.5
|   |   |   |   |   |   |   |   in < 0.5
|   |   |   |   |   |   |   |   |   tweet-id < 650137.5
|   |   |   |   |   |   |   |   |   |   on < 1.5
|   |   |   |   |   |   |   |   |   |   |   user-id < 10.5
|   |   |   |   |   |   |   |   |   |   |   |   and < 0.5
|   |   |   |   |   |   |   |   |   |   |   |   |   user-id < 5.5 : LeftTroll (1/0)
|   |   |   |   |   |   |   |   |   |   |   |   |   user-id >= 5.5 : RightTroll (9/0)
|   |   |   |   |   |   |   |   |   |   |   |   and >= 0.5 : RightTroll (3/0)
|   |   |   |   |   |   |   |   |   |   |   user-id >= 10.5
|   |   |   |   |   |   |   |   |   |   |   |   user-id < 17.5 : Other (22/0)
|   |   |   |   |   |   |   |   |   |   |   |   user-id >= 17.5 : RightTroll (2/0)
|   |   |   |   |   |   |   |   |   |   on >= 1.5 : LeftTroll (1/0)
|   |   |   |   |   |   |   |   |   tweet-id >= 650137.5 : Other (9/0)
|   |   |   |   |   |   |   |   in >= 0.5 : Other (4/0)
|   |   |   |   |   user-id >= 28.5
|   |   |   |   |   |   on < 0.5
|   |   |   |   |   |   |   a < 0.5
|   |   |   |   |   |   |   |   for < 0.5
|   |   |   |   |   |   |   |   |   is < 0.5
|   |   |   |   |   |   |   |   |   |   tweet-id < 121397.5
|   |   |   |   |   |   |   |   |   |   |   user-id < 31 : LeftTroll (178/0)
|   |   |   |   |   |   |   |   |   |   |   user-id >= 31 : Other (81/0)
|   |   |   |   |   |   |   |   |   |   tweet-id >= 121397.5
|   |   |   |   |   |   |   |   |   |   |   user-id < 31 : LeftTroll (787/0)
|   |   |   |   |   |   |   |   |   |   |   user-id >= 31 : Other (478/0)
|   |   |   |   |   |   |   |   |   is >= 0.5
|   |   |   |   |   |   |   |   |   |   you < 0.5
|   |   |   |   |   |   |   |   |   |   |   tweet-id < 154100 : LeftTroll (31/0)
|   |   |   |   |   |   |   |   |   |   |   tweet-id >= 154100
|   |   |   |   |   |   |   |   |   |   |   |   tweet-id < 155195 : Other (1/0)
|   |   |   |   |   |   |   |   |   |   |   |   tweet-id >= 155195
|   |   |   |   |   |   |   |   |   |   |   |   |   user-id < 31 : LeftTroll (35/0)
|   |   |   |   |   |   |   |   |   |   |   |   |   user-id >= 31 : Other (3/0)
|   |   |   |   |   |   |   |   |   |   you >= 0.5 : LeftTroll (8/0)
|   |   |   |   |   |   |   |   for >= 0.5
|   |   |   |   |   |   |   |   |   tweet-id < 17772.5
|   |   |   |   |   |   |   |   |   |   and < 0.5
|   |   |   |   |   |   |   |   |   |   |   tweet-id < 15789.5 : LeftTroll (3/0)
|   |   |   |   |   |   |   |   |   |   |   tweet-id >= 15789.5 : Other (1/0)
|   |   |   |   |   |   |   |   |   |   and >= 0.5 : LeftTroll (4/0)
|   |   |   |   |   |   |   |   |   tweet-id >= 17772.5 : LeftTroll (98/0)
|   |   |   |   |   |   |   a >= 0.5 : LeftTroll (124/0)
|   |   |   |   |   |   on >= 0.5
|   |   |   |   |   |   |   tweet-id < 137606.5
|   |   |   |   |   |   |   |   user-id < 31 : LeftTroll (34/0)
|   |   |   |   |   |   |   |   user-id >= 31 : Other (1/0)
|   |   |   |   |   |   |   tweet-id >= 137606.5 : LeftTroll (110/0)
|   |   |   |   of >= 0.5
|   |   |   |   |   a < 0.5
|   |   |   |   |   |   and < 1.5
|   |   |   |   |   |   |   user-id < 28.5
|   |   |   |   |   |   |   |   for < 0.5
|   |   |   |   |   |   |   |   |   you < 0.5
|   |   |   |   |   |   |   |   |   |   is < 0.5
|   |   |   |   |   |   |   |   |   |   |   in < 0.5
|   |   |   |   |   |   |   |   |   |   |   |   user-id < 10.5
|   |   |   |   |   |   |   |   |   |   |   |   |   on < 0.5
|   |   |   |   |   |   |   |   |   |   |   |   |   |   tweet-id < 1119500
|   |   |   |   |   |   |   |   |   |   |   |   |   |   |   and < 0.5
|   |   |   |   |   |   |   |   |   |   |   |   |   |   |   |   of < 1.5
|   |   |   |   |   |   |   |   |   |   |   |   |   |   |   |   |   tweet-id < 176344
|   |   |   |   |   |   |   |   |   |   |   |   |   |   |   |   |   |   user-id < 6.5
|   |   |   |   |   |   |   |   |   |   |   |   |   |   |   |   |   |   |   user-id < 3.5 : LeftTroll (6/0)
|   |   |   |   |   |   |   |   |   |   |   |   |   |   |   |   |   |   |   user-id >= 3.5 : Other (1/0)
|   |   |   |   |   |   |   |   |   |   |   |   |   |   |   |   |   |   user-id >= 6.5 : RightTroll (58/0)
|   |   |   |   |   |   |   |   |   |   |   |   |   |   |   |   |   tweet-id >= 176344
|   |   |   |   |   |   |   |   |   |   |   |   |   |   |   |   |   |   user-id < 5.5 : LeftTroll (1/0)
|   |   |   |   |   |   |   |   |   |   |   |   |   |   |   |   |   |   user-id >= 5.5 : RightTroll (42/0)
|   |   |   |   |   |   |   |   |   |   |   |   |   |   |   |   of >= 1.5 : RightTroll (7/0)
|   |   |   |   |   |   |   |   |   |   |   |   |   |   |   and >= 0.5 : RightTroll (7/0)
|   |   |   |   |   |   |   |   |   |   |   |   |   |   tweet-id >= 1119500
|   |   |   |   |   |   |   |   |   |   |   |   |   |   |   of < 1.5
|   |   |   |   |   |   |   |   |   |   |   |   |   |   |   |   tweet-id < 1121883.5
|   |   |   |   |   |   |   |   |   |   |   |   |   |   |   |   |   user-id < 4.5 : LeftTroll (1/0)
|   |   |   |   |   |   |   |   |   |   |   |   |   |   |   |   |   user-id >= 4.5 : Other (1/0)
|   |   |   |   |   |   |   |   |   |   |   |   |   |   |   |   tweet-id >= 1121883.5 : RightTroll (2/0)
|   |   |   |   |   |   |   |   |   |   |   |   |   |   |   of >= 1.5 : RightTroll (1/0)
|   |   |   |   |   |   |   |   |   |   |   |   |   on >= 0.5
|   |   |   |   |   |   |   |   |   |   |   |   |   |   user-id < 5.5 : LeftTroll (3/0)
|   |   |   |   |   |   |   |   |   |   |   |   |   |   user-id >= 5.5 : RightTroll (13/0)
|   |   |   |   |   |   |   |   |   |   |   |   user-id >= 10.5
|   |   |   |   |   |   |   |   |   |   |   |   |   user-id < 14.5 : Other (224/0)
|   |   |   |   |   |   |   |   |   |   |   |   |   user-id >= 14.5
|   |   |   |   |   |   |   |   |   |   |   |   |   |   user-id < 25.5
|   |   |   |   |   |   |   |   |   |   |   |   |   |   |   user-id < 17.5 : LeftTroll (2/0)
|   |   |   |   |   |   |   |   |   |   |   |   |   |   |   user-id >= 17.5 : RightTroll (144/0)
|   |   |   |   |   |   |   |   |   |   |   |   |   |   user-id >= 25.5 : Other (6/0)
|   |   |   |   |   |   |   |   |   |   |   in >= 0.5
|   |   |   |   |   |   |   |   |   |   |   |   user-id < 5.5 : LeftTroll (5/0)
|   |   |   |   |   |   |   |   |   |   |   |   user-id >= 5.5
|   |   |   |   |   |   |   |   |   |   |   |   |   on < 0.5
|   |   |   |   |   |   |   |   |   |   |   |   |   |   user-id < 10.5 : RightTroll (27/0)
|   |   |   |   |   |   |   |   |   |   |   |   |   |   user-id >= 10.5
|   |   |   |   |   |   |   |   |   |   |   |   |   |   |   user-id < 15.5 : Other (17/0)
|   |   |   |   |   |   |   |   |   |   |   |   |   |   |   user-id >= 15.5
|   |   |   |   |   |   |   |   |   |   |   |   |   |   |   |   in < 1.5 : RightTroll (18/0)
|   |   |   |   |   |   |   |   |   |   |   |   |   |   |   |   in >= 1.5 : Other (1/0)
|   |   |   |   |   |   |   |   |   |   |   |   |   on >= 0.5 : RightTroll (2/0)
|   |   |   |   |   |   |   |   |   |   is >= 0.5
|   |   |   |   |   |   |   |   |   |   |   tweet-id < 18019 : Other (2/0)
|   |   |   |   |   |   |   |   |   |   |   tweet-id >= 18019
|   |   |   |   |   |   |   |   |   |   |   |   in < 0.5
|   |   |   |   |   |   |   |   |   |   |   |   |   on < 0.5
|   |   |   |   |   |   |   |   |   |   |   |   |   |   user-id < 15.5
|   |   |   |   |   |   |   |   |   |   |   |   |   |   |   tweet-id < 151745.5 : RightTroll (5/0)
|   |   |   |   |   |   |   |   |   |   |   |   |   |   |   tweet-id >= 151745.5
|   |   |   |   |   |   |   |   |   |   |   |   |   |   |   |   user-id < 10.5 : RightTroll (4/0)
|   |   |   |   |   |   |   |   |   |   |   |   |   |   |   |   user-id >= 10.5 : Other (8/0)
|   |   |   |   |   |   |   |   |   |   |   |   |   |   user-id >= 15.5 : RightTroll (30/0)
|   |   |   |   |   |   |   |   |   |   |   |   |   on >= 0.5 : Other (1/0)
|   |   |   |   |   |   |   |   |   |   |   |   in >= 0.5
|   |   |   |   |   |   |   |   |   |   |   |   |   on < 0.5
|   |   |   |   |   |   |   |   |   |   |   |   |   |   user-id < 10.5 : RightTroll (2/0)
|   |   |   |   |   |   |   |   |   |   |   |   |   |   user-id >= 10.5
|   |   |   |   |   |   |   |   |   |   |   |   |   |   |   tweet-id < 160417.5
|   |   |   |   |   |   |   |   |   |   |   |   |   |   |   |   tweet-id < 133781.5 : Other (1/0)
|   |   |   |   |   |   |   |   |   |   |   |   |   |   |   |   tweet-id >= 133781.5 : RightTroll (1/0)
|   |   |   |   |   |   |   |   |   |   |   |   |   |   |   tweet-id >= 160417.5 : Other (2/0)
|   |   |   |   |   |   |   |   |   |   |   |   |   on >= 0.5 : RightTroll (1/0)
|   |   |   |   |   |   |   |   |   you >= 0.5
|   |   |   |   |   |   |   |   |   |   user-id < 10.5 : RightTroll (7/0)
|   |   |   |   |   |   |   |   |   |   user-id >= 10.5
|   |   |   |   |   |   |   |   |   |   |   and < 0.5
|   |   |   |   |   |   |   |   |   |   |   |   you < 1.5
|   |   |   |   |   |   |   |   |   |   |   |   |   tweet-id < 1114459.5 : Other (33/0)
|   |   |   |   |   |   |   |   |   |   |   |   |   tweet-id >= 1114459.5 : RightTroll (1/0)
|   |   |   |   |   |   |   |   |   |   |   |   you >= 1.5 : Other (7/0)
|   |   |   |   |   |   |   |   |   |   |   and >= 0.5 : Other (4/0)
|   |   |   |   |   |   |   |   for >= 0.5
|   |   |   |   |   |   |   |   |   on < 0.5
|   |   |   |   |   |   |   |   |   |   you < 0.5
|   |   |   |   |   |   |   |   |   |   |   user-id < 5.5 : LeftTroll (3/0)
|   |   |   |   |   |   |   |   |   |   |   user-id >= 5.5
|   |   |   |   |   |   |   |   |   |   |   |   user-id < 10.5 : RightTroll (20/0)
|   |   |   |   |   |   |   |   |   |   |   |   user-id >= 10.5
|   |   |   |   |   |   |   |   |   |   |   |   |   is < 0.5
|   |   |   |   |   |   |   |   |   |   |   |   |   |   in < 1.5
|   |   |   |   |   |   |   |   |   |   |   |   |   |   |   tweet-id < 648738
|   |   |   |   |   |   |   |   |   |   |   |   |   |   |   |   and < 0.5
|   |   |   |   |   |   |   |   |   |   |   |   |   |   |   |   |   user-id < 15.5 : Other (5/0)
|   |   |   |   |   |   |   |   |   |   |   |   |   |   |   |   |   user-id >= 15.5
|   |   |   |   |   |   |   |   |   |   |   |   |   |   |   |   |   |   in < 0.5
|   |   |   |   |   |   |   |   |   |   |   |   |   |   |   |   |   |   |   tweet-id < 128968.5
|   |   |   |   |   |   |   |   |   |   |   |   |   |   |   |   |   |   |   |   user-id < 25 : RightTroll (4/0)
|   |   |   |   |   |   |   |   |   |   |   |   |   |   |   |   |   |   |   |   user-id >= 25 : Other (1/0)
|   |   |   |   |   |   |   |   |   |   |   |   |   |   |   |   |   |   |   tweet-id >= 128968.5 : RightTroll (16/0)
|   |   |   |   |   |   |   |   |   |   |   |   |   |   |   |   |   |   in >= 0.5 : RightTroll (1/0)
|   |   |   |   |   |   |   |   |   |   |   |   |   |   |   |   and >= 0.5
|   |   |   |   |   |   |   |   |   |   |   |   |   |   |   |   |   user-id < 15.5 : Other (3/0)
|   |   |   |   |   |   |   |   |   |   |   |   |   |   |   |   |   user-id >= 15.5 : RightTroll (4/0)
|   |   |   |   |   |   |   |   |   |   |   |   |   |   |   tweet-id >= 648738
|   |   |   |   |   |   |   |   |   |   |   |   |   |   |   |   user-id < 15.5 : Other (4/0)
|   |   |   |   |   |   |   |   |   |   |   |   |   |   |   |   user-id >= 15.5 : RightTroll (1/0)
|   |   |   |   |   |   |   |   |   |   |   |   |   |   in >= 1.5 : Other (1/0)
|   |   |   |   |   |   |   |   |   |   |   |   |   is >= 0.5 : Other (1/0)
|   |   |   |   |   |   |   |   |   |   you >= 0.5
|   |   |   |   |   |   |   |   |   |   |   user-id < 10.5 : RightTroll (3/0)
|   |   |   |   |   |   |   |   |   |   |   user-id >= 10.5 : Other (5/0)
|   |   |   |   |   |   |   |   |   on >= 0.5 : RightTroll (3/0)
|   |   |   |   |   |   |   user-id >= 28.5
|   |   |   |   |   |   |   |   user-id < 32 : LeftTroll (93/0)
|   |   |   |   |   |   |   |   user-id >= 32 : Other (1/0)
|   |   |   |   |   |   and >= 1.5 : LeftTroll (3/0)
|   |   |   |   |   a >= 0.5
|   |   |   |   |   |   user-id < 14.5
|   |   |   |   |   |   |   user-id < 10.5
|   |   |   |   |   |   |   |   user-id < 5.5 : LeftTroll (2/0)
|   |   |   |   |   |   |   |   user-id >= 5.5 : RightTroll (39/0)
|   |   |   |   |   |   |   user-id >= 10.5 : Other (157/0)
|   |   |   |   |   |   user-id >= 14.5
|   |   |   |   |   |   |   user-id < 27
|   |   |   |   |   |   |   |   a < 2.5
|   |   |   |   |   |   |   |   |   user-id < 18 : LeftTroll (2/0)
|   |   |   |   |   |   |   |   |   user-id >= 18 : RightTroll (37/0)
|   |   |   |   |   |   |   |   a >= 2.5 : LeftTroll (1/0)
|   |   |   |   |   |   |   user-id >= 27
|   |   |   |   |   |   |   |   in < 0.5
|   |   |   |   |   |   |   |   |   user-id < 31 : LeftTroll (20/0)
|   |   |   |   |   |   |   |   |   user-id >= 31 : Other (4/0)
|   |   |   |   |   |   |   |   in >= 0.5 : LeftTroll (9/0)
|   |   |   user-id >= 35
|   |   |   |   user-id < 46.5
|   |   |   |   |   and < 1.5
|   |   |   |   |   |   a < 1.5
|   |   |   |   |   |   |   in < 1.5
|   |   |   |   |   |   |   |   a < 0.5
|   |   |   |   |   |   |   |   |   you < 0.5
|   |   |   |   |   |   |   |   |   |   and < 0.5
|   |   |   |   |   |   |   |   |   |   |   is < 1.5
|   |   |   |   |   |   |   |   |   |   |   |   user-id < 40.5 : RightTroll (2412/0)
|   |   |   |   |   |   |   |   |   |   |   |   user-id >= 40.5
|   |   |   |   |   |   |   |   |   |   |   |   |   on < 0.5
|   |   |   |   |   |   |   |   |   |   |   |   |   |   for < 0.5
|   |   |   |   |   |   |   |   |   |   |   |   |   |   |   is < 0.5
|   |   |   |   |   |   |   |   |   |   |   |   |   |   |   |   of < 0.5
|   |   |   |   |   |   |   |   |   |   |   |   |   |   |   |   |   tweet-id < 18185 : LeftTroll (79/0)
|   |   |   |   |   |   |   |   |   |   |   |   |   |   |   |   |   tweet-id >= 18185
|   |   |   |   |   |   |   |   |   |   |   |   |   |   |   |   |   |   in < 0.5
|   |   |   |   |   |   |   |   |   |   |   |   |   |   |   |   |   |   |   tweet-id < 18265 : Other (1/0)
|   |   |   |   |   |   |   |   |   |   |   |   |   |   |   |   |   |   |   tweet-id >= 18265
|   |   |   |   |   |   |   |   |   |   |   |   |   |   |   |   |   |   |   |   user-id < 45 : LeftTroll (820/0)
|   |   |   |   |   |   |   |   |   |   |   |   |   |   |   |   |   |   |   |   user-id >= 45 : Other (10/0)
|   |   |   |   |   |   |   |   |   |   |   |   |   |   |   |   |   |   in >= 0.5 : LeftTroll (104/0)
|   |   |   |   |   |   |   |   |   |   |   |   |   |   |   |   of >= 0.5 : LeftTroll (106/0)
|   |   |   |   |   |   |   |   |   |   |   |   |   |   |   is >= 0.5 : LeftTroll (118/0)
|   |   |   |   |   |   |   |   |   |   |   |   |   |   for >= 0.5 : LeftTroll (144/0)
|   |   |   |   |   |   |   |   |   |   |   |   |   on >= 0.5 : LeftTroll (116/0)
|   |   |   |   |   |   |   |   |   |   |   is >= 1.5
|   |   |   |   |   |   |   |   |   |   |   |   tweet-id < 19547
|   |   |   |   |   |   |   |   |   |   |   |   |   user-id < 40.5 : RightTroll (2/0)
|   |   |   |   |   |   |   |   |   |   |   |   |   user-id >= 40.5 : LeftTroll (1/0)
|   |   |   |   |   |   |   |   |   |   |   |   tweet-id >= 19547 : LeftTroll (11/0)
|   |   |   |   |   |   |   |   |   |   and >= 0.5
|   |   |   |   |   |   |   |   |   |   |   of < 0.5
|   |   |   |   |   |   |   |   |   |   |   |   user-id < 40.5 : RightTroll (244/0)
|   |   |   |   |   |   |   |   |   |   |   |   user-id >= 40.5 : LeftTroll (166/0)
|   |   |   |   |   |   |   |   |   |   |   of >= 0.5
|   |   |   |   |   |   |   |   |   |   |   |   user-id < 40.5 : RightTroll (14/0)
|   |   |   |   |   |   |   |   |   |   |   |   user-id >= 40.5 : LeftTroll (28/0)
|   |   |   |   |   |   |   |   |   you >= 0.5
|   |   |   |   |   |   |   |   |   |   tweet-id < 1116860
|   |   |   |   |   |   |   |   |   |   |   and < 0.5
|   |   |   |   |   |   |   |   |   |   |   |   of < 0.5
|   |   |   |   |   |   |   |   |   |   |   |   |   in < 0.5
|   |   |   |   |   |   |   |   |   |   |   |   |   |   user-id < 40.5 : RightTroll (48/0)
|   |   |   |   |   |   |   |   |   |   |   |   |   |   user-id >= 40.5 : LeftTroll (139/0)
|   |   |   |   |   |   |   |   |   |   |   |   |   in >= 0.5
|   |   |   |   |   |   |   |   |   |   |   |   |   |   is < 0.5
|   |   |   |   |   |   |   |   |   |   |   |   |   |   |   on < 0.5
|   |   |   |   |   |   |   |   |   |   |   |   |   |   |   |   user-id < 40.5 : RightTroll (6/0)
|   |   |   |   |   |   |   |   |   |   |   |   |   |   |   |   user-id >= 40.5 : LeftTroll (16/0)
|   |   |   |   |   |   |   |   |   |   |   |   |   |   |   on >= 0.5 : LeftTroll (1/0)
|   |   |   |   |   |   |   |   |   |   |   |   |   |   is >= 0.5 : RightTroll (2/0)
|   |   |   |   |   |   |   |   |   |   |   |   of >= 0.5
|   |   |   |   |   |   |   |   |   |   |   |   |   is < 0.5
|   |   |   |   |   |   |   |   |   |   |   |   |   |   user-id < 40.5 : RightTroll (2/0)
|   |   |   |   |   |   |   |   |   |   |   |   |   |   user-id >= 40.5 : LeftTroll (17/0)
|   |   |   |   |   |   |   |   |   |   |   |   |   is >= 0.5 : LeftTroll (1/0)
|   |   |   |   |   |   |   |   |   |   |   and >= 0.5
|   |   |   |   |   |   |   |   |   |   |   |   tweet-id < 1113191.5
|   |   |   |   |   |   |   |   |   |   |   |   |   is < 0.5
|   |   |   |   |   |   |   |   |   |   |   |   |   |   user-id < 40.5 : RightTroll (5/0)
|   |   |   |   |   |   |   |   |   |   |   |   |   |   user-id >= 40.5 : LeftTroll (36/0)
|   |   |   |   |   |   |   |   |   |   |   |   |   is >= 0.5 : LeftTroll (14/0)
|   |   |   |   |   |   |   |   |   |   |   |   tweet-id >= 1113191.5 : RightTroll (1/0)
|   |   |   |   |   |   |   |   |   |   tweet-id >= 1116860 : LeftTroll (10/0)
|   |   |   |   |   |   |   |   a >= 0.5
|   |   |   |   |   |   |   |   |   on < 0.5
|   |   |   |   |   |   |   |   |   |   of < 0.5
|   |   |   |   |   |   |   |   |   |   |   is < 0.5
|   |   |   |   |   |   |   |   |   |   |   |   you < 0.5
|   |   |   |   |   |   |   |   |   |   |   |   |   tweet-id < 11220 : RightTroll (3/0)
|   |   |   |   |   |   |   |   |   |   |   |   |   tweet-id >= 11220
|   |   |   |   |   |   |   |   |   |   |   |   |   |   user-id < 40.5 : RightTroll (305/0)
|   |   |   |   |   |   |   |   |   |   |   |   |   |   user-id >= 40.5 : LeftTroll (214/0)
|   |   |   |   |   |   |   |   |   |   |   |   you >= 0.5
|   |   |   |   |   |   |   |   |   |   |   |   |   you < 1.5
|   |   |   |   |   |   |   |   |   |   |   |   |   |   tweet-id < 66842 : LeftTroll (3/0)
|   |   |   |   |   |   |   |   |   |   |   |   |   |   tweet-id >= 66842
|   |   |   |   |   |   |   |   |   |   |   |   |   |   |   in < 0.5
|   |   |   |   |   |   |   |   |   |   |   |   |   |   |   |   and < 0.5
|   |   |   |   |   |   |   |   |   |   |   |   |   |   |   |   |   tweet-id < 125227.5 : RightTroll (1/0)
|   |   |   |   |   |   |   |   |   |   |   |   |   |   |   |   |   tweet-id >= 125227.5
|   |   |   |   |   |   |   |   |   |   |   |   |   |   |   |   |   |   tweet-id < 657940.5 : LeftTroll (2/0)
|   |   |   |   |   |   |   |   |   |   |   |   |   |   |   |   |   |   tweet-id >= 657940.5 : RightTroll (1/0)
|   |   |   |   |   |   |   |   |   |   |   |   |   |   |   |   and >= 0.5
|   |   |   |   |   |   |   |   |   |   |   |   |   |   |   |   |   user-id < 40.5 : RightTroll (2/0)
|   |   |   |   |   |   |   |   |   |   |   |   |   |   |   |   |   user-id >= 40.5 : LeftTroll (4/0)
|   |   |   |   |   |   |   |   |   |   |   |   |   |   |   in >= 0.5
|   |   |   |   |   |   |   |   |   |   |   |   |   |   |   |   user-id < 40.5 : RightTroll (4/0)
|   |   |   |   |   |   |   |   |   |   |   |   |   |   |   |   user-id >= 40.5 : LeftTroll (5/0)
|   |   |   |   |   |   |   |   |   |   |   |   |   you >= 1.5
|   |   |   |   |   |   |   |   |   |   |   |   |   |   tweet-id < 166971.5 : LeftTroll (4/0)
|   |   |   |   |   |   |   |   |   |   |   |   |   |   tweet-id >= 166971.5
|   |   |   |   |   |   |   |   |   |   |   |   |   |   |   tweet-id < 182653 : RightTroll (1/0)
|   |   |   |   |   |   |   |   |   |   |   |   |   |   |   tweet-id >= 182653 : LeftTroll (3/0)
|   |   |   |   |   |   |   |   |   |   |   is >= 0.5
|   |   |   |   |   |   |   |   |   |   |   |   user-id < 40.5 : RightTroll (24/0)
|   |   |   |   |   |   |   |   |   |   |   |   user-id >= 40.5 : LeftTroll (81/0)
|   |   |   |   |   |   |   |   |   |   of >= 0.5
|   |   |   |   |   |   |   |   |   |   |   user-id < 40.5 : RightTroll (38/0)
|   |   |   |   |   |   |   |   |   |   |   user-id >= 40.5 : LeftTroll (82/0)
|   |   |   |   |   |   |   |   |   on >= 0.5
|   |   |   |   |   |   |   |   |   |   in < 0.5
|   |   |   |   |   |   |   |   |   |   |   and < 0.5
|   |   |   |   |   |   |   |   |   |   |   |   you < 0.5
|   |   |   |   |   |   |   |   |   |   |   |   |   for < 0.5
|   |   |   |   |   |   |   |   |   |   |   |   |   |   of < 1.5
|   |   |   |   |   |   |   |   |   |   |   |   |   |   |   user-id < 40.5 : RightTroll (49/0)
|   |   |   |   |   |   |   |   |   |   |   |   |   |   |   user-id >= 40.5 : LeftTroll (14/0)
|   |   |   |   |   |   |   |   |   |   |   |   |   |   of >= 1.5 : LeftTroll (1/0)
|   |   |   |   |   |   |   |   |   |   |   |   |   for >= 0.5
|   |   |   |   |   |   |   |   |   |   |   |   |   |   user-id < 40.5 : RightTroll (2/0)
|   |   |   |   |   |   |   |   |   |   |   |   |   |   user-id >= 40.5 : LeftTroll (6/0)
|   |   |   |   |   |   |   |   |   |   |   |   you >= 0.5 : LeftTroll (2/0)
|   |   |   |   |   |   |   |   |   |   |   and >= 0.5
|   |   |   |   |   |   |   |   |   |   |   |   tweet-id < 138845.5 : LeftTroll (3/0)
|   |   |   |   |   |   |   |   |   |   |   |   tweet-id >= 138845.5
|   |   |   |   |   |   |   |   |   |   |   |   |   user-id < 40.5 : RightTroll (4/0)
|   |   |   |   |   |   |   |   |   |   |   |   |   user-id >= 40.5 : LeftTroll (3/0)
|   |   |   |   |   |   |   |   |   |   in >= 0.5
|   |   |   |   |   |   |   |   |   |   |   tweet-id < 1103844
|   |   |   |   |   |   |   |   |   |   |   |   tweet-id < 162476
|   |   |   |   |   |   |   |   |   |   |   |   |   tweet-id < 139071 : LeftTroll (3/0)
|   |   |   |   |   |   |   |   |   |   |   |   |   tweet-id >= 139071 : RightTroll (1/0)
|   |   |   |   |   |   |   |   |   |   |   |   tweet-id >= 162476 : LeftTroll (6/0)
|   |   |   |   |   |   |   |   |   |   |   tweet-id >= 1103844
|   |   |   |   |   |   |   |   |   |   |   |   tweet-id < 1109921.5 : RightTroll (1/0)
|   |   |   |   |   |   |   |   |   |   |   |   tweet-id >= 1109921.5 : LeftTroll (1/0)
|   |   |   |   |   |   |   in >= 1.5
|   |   |   |   |   |   |   |   on < 0.5
|   |   |   |   |   |   |   |   |   user-id < 40.5 : RightTroll (8/0)
|   |   |   |   |   |   |   |   |   user-id >= 40.5 : LeftTroll (42/0)
|   |   |   |   |   |   |   |   on >= 0.5
|   |   |   |   |   |   |   |   |   tweet-id < 184883.5
|   |   |   |   |   |   |   |   |   |   tweet-id < 123730.5 : LeftTroll (1/0)
|   |   |   |   |   |   |   |   |   |   tweet-id >= 123730.5 : RightTroll (2/0)
|   |   |   |   |   |   |   |   |   tweet-id >= 184883.5 : LeftTroll (2/0)
|   |   |   |   |   |   a >= 1.5
|   |   |   |   |   |   |   is < 0.5
|   |   |   |   |   |   |   |   tweet-id < 194635.5
|   |   |   |   |   |   |   |   |   user-id < 40.5 : RightTroll (24/0)
|   |   |   |   |   |   |   |   |   user-id >= 40.5 : LeftTroll (46/0)
|   |   |   |   |   |   |   |   tweet-id >= 194635.5
|   |   |   |   |   |   |   |   |   tweet-id < 1111540.5 : LeftTroll (9/0)
|   |   |   |   |   |   |   |   |   tweet-id >= 1111540.5
|   |   |   |   |   |   |   |   |   |   and < 0.5
|   |   |   |   |   |   |   |   |   |   |   user-id < 39.5 : RightTroll (1/0)
|   |   |   |   |   |   |   |   |   |   |   user-id >= 39.5 : LeftTroll (5/0)
|   |   |   |   |   |   |   |   |   |   and >= 0.5
|   |   |   |   |   |   |   |   |   |   |   tweet-id < 1112846.5 : RightTroll (1/0)
|   |   |   |   |   |   |   |   |   |   |   tweet-id >= 1112846.5 : LeftTroll (1/0)
|   |   |   |   |   |   |   is >= 0.5
|   |   |   |   |   |   |   |   for < 0.5
|   |   |   |   |   |   |   |   |   tweet-id < 196773
|   |   |   |   |   |   |   |   |   |   user-id < 40.5 : RightTroll (2/0)
|   |   |   |   |   |   |   |   |   |   user-id >= 40.5 : LeftTroll (13/0)
|   |   |   |   |   |   |   |   |   tweet-id >= 196773 : LeftTroll (7/0)
|   |   |   |   |   |   |   |   for >= 0.5 : LeftTroll (5/0)
|   |   |   |   |   and >= 1.5
|   |   |   |   |   |   for < 0.5 : LeftTroll (45/0)
|   |   |   |   |   |   for >= 0.5
|   |   |   |   |   |   |   user-id < 40.5 : RightTroll (2/0)
|   |   |   |   |   |   |   user-id >= 40.5 : LeftTroll (5/0)
|   |   |   |   user-id >= 46.5 : RightTroll (10735/0)
|   |   user-id >= 49.5
|   |   |   you < 0.5
|   |   |   |   and < 0.5
|   |   |   |   |   on < 0.5
|   |   |   |   |   |   user-id < 73.5
|   |   |   |   |   |   |   tweet-id < 1713
|   |   |   |   |   |   |   |   a < 0.5
|   |   |   |   |   |   |   |   |   of < 0.5
|   |   |   |   |   |   |   |   |   |   user-id < 52 : LeftTroll (5/0)
|   |   |   |   |   |   |   |   |   |   user-id >= 52 : Other (51/0)
|   |   |   |   |   |   |   |   |   of >= 0.5
|   |   |   |   |   |   |   |   |   |   user-id < 52 : LeftTroll (1/0)
|   |   |   |   |   |   |   |   |   |   user-id >= 52 : Other (3/0)
|   |   |   |   |   |   |   |   a >= 0.5
|   |   |   |   |   |   |   |   |   user-id < 52 : LeftTroll (1/0)
|   |   |   |   |   |   |   |   |   user-id >= 52 : Other (3/0)
|   |   |   |   |   |   |   tweet-id >= 1713
|   |   |   |   |   |   |   |   for < 2.5
|   |   |   |   |   |   |   |   |   user-id < 52 : LeftTroll (349/0)
|   |   |   |   |   |   |   |   |   user-id >= 52
|   |   |   |   |   |   |   |   |   |   in < 0.5
|   |   |   |   |   |   |   |   |   |   |   of < 0.5
|   |   |   |   |   |   |   |   |   |   |   |   user-id < 55.5 : Other (3803/0)
|   |   |   |   |   |   |   |   |   |   |   |   user-id >= 55.5
|   |   |   |   |   |   |   |   |   |   |   |   |   user-id < 57 : RightTroll (18/0)
|   |   |   |   |   |   |   |   |   |   |   |   |   user-id >= 57
|   |   |   |   |   |   |   |   |   |   |   |   |   |   tweet-id < 115519.5 : Other (369/0)
|   |   |   |   |   |   |   |   |   |   |   |   |   |   tweet-id >= 115519.5
|   |   |   |   |   |   |   |   |   |   |   |   |   |   |   tweet-id < 115548.5 : RightTroll (1/0)
|   |   |   |   |   |   |   |   |   |   |   |   |   |   |   tweet-id >= 115548.5
|   |   |   |   |   |   |   |   |   |   |   |   |   |   |   |   user-id < 62.5
|   |   |   |   |   |   |   |   |   |   |   |   |   |   |   |   |   for < 0.5
|   |   |   |   |   |   |   |   |   |   |   |   |   |   |   |   |   |   user-id < 60 : Other (120/0)
|   |   |   |   |   |   |   |   |   |   |   |   |   |   |   |   |   |   user-id >= 60 : RightTroll (3/0)
|   |   |   |   |   |   |   |   |   |   |   |   |   |   |   |   |   for >= 0.5 : RightTroll (1/0)
|   |   |   |   |   |   |   |   |   |   |   |   |   |   |   |   user-id >= 62.5
|   |   |   |   |   |   |   |   |   |   |   |   |   |   |   |   |   a < 0.5
|   |   |   |   |   |   |   |   |   |   |   |   |   |   |   |   |   |   for < 0.5
|   |   |   |   |   |   |   |   |   |   |   |   |   |   |   |   |   |   |   user-id < 65.5
|   |   |   |   |   |   |   |   |   |   |   |   |   |   |   |   |   |   |   |   tweet-id < 154815.5
|   |   |   |   |   |   |   |   |   |   |   |   |   |   |   |   |   |   |   |   |   tweet-id < 154772.5 : Other (135/0)
|   |   |   |   |   |   |   |   |   |   |   |   |   |   |   |   |   |   |   |   |   tweet-id >= 154772.5 : RightTroll (1/0)
|   |   |   |   |   |   |   |   |   |   |   |   |   |   |   |   |   |   |   |   tweet-id >= 154815.5 : Other (299/0)
|   |   |   |   |   |   |   |   |   |   |   |   |   |   |   |   |   |   |   user-id >= 65.5 : Other (2247/0)
|   |   |   |   |   |   |   |   |   |   |   |   |   |   |   |   |   |   for >= 0.5 : Other (15/0)
|   |   |   |   |   |   |   |   |   |   |   |   |   |   |   |   |   a >= 0.5 : Other (32/0)
|   |   |   |   |   |   |   |   |   |   |   of >= 0.5
|   |   |   |   |   |   |   |   |   |   |   |   user-id < 54.5 : Other (600/0)
|   |   |   |   |   |   |   |   |   |   |   |   user-id >= 54.5
|   |   |   |   |   |   |   |   |   |   |   |   |   tweet-id < 139041 : Other (11/0)
|   |   |   |   |   |   |   |   |   |   |   |   |   tweet-id >= 139041
|   |   |   |   |   |   |   |   |   |   |   |   |   |   tweet-id < 1100865
|   |   |   |   |   |   |   |   |   |   |   |   |   |   |   for < 0.5
|   |   |   |   |   |   |   |   |   |   |   |   |   |   |   |   tweet-id < 140407 : RightTroll (1/0)
|   |   |   |   |   |   |   |   |   |   |   |   |   |   |   |   tweet-id >= 140407
|   |   |   |   |   |   |   |   |   |   |   |   |   |   |   |   |   a < 0.5
|   |   |   |   |   |   |   |   |   |   |   |   |   |   |   |   |   |   tweet-id < 157580 : Other (4/0)
|   |   |   |   |   |   |   |   |   |   |   |   |   |   |   |   |   |   tweet-id >= 157580
|   |   |   |   |   |   |   |   |   |   |   |   |   |   |   |   |   |   |   tweet-id < 162100.5 : RightTroll (1/0)
|   |   |   |   |   |   |   |   |   |   |   |   |   |   |   |   |   |   |   tweet-id >= 162100.5
|   |   |   |   |   |   |   |   |   |   |   |   |   |   |   |   |   |   |   |   tweet-id < 637472.5
|   |   |   |   |   |   |   |   |   |   |   |   |   |   |   |   |   |   |   |   |   user-id < 64.5 : RightTroll (1/0)
|   |   |   |   |   |   |   |   |   |   |   |   |   |   |   |   |   |   |   |   |   user-id >= 64.5 : Other (3/0)
|   |   |   |   |   |   |   |   |   |   |   |   |   |   |   |   |   |   |   |   tweet-id >= 637472.5 : RightTroll (1/0)
|   |   |   |   |   |   |   |   |   |   |   |   |   |   |   |   |   a >= 0.5 : Other (1/0)
|   |   |   |   |   |   |   |   |   |   |   |   |   |   |   for >= 0.5 : Other (1/0)
|   |   |   |   |   |   |   |   |   |   |   |   |   |   tweet-id >= 1100865 : Other (6/0)
|   |   |   |   |   |   |   |   |   |   in >= 0.5
|   |   |   |   |   |   |   |   |   |   |   a < 0.5
|   |   |   |   |   |   |   |   |   |   |   |   of < 0.5
|   |   |   |   |   |   |   |   |   |   |   |   |   user-id < 54.5 : Other (1694/0)
|   |   |   |   |   |   |   |   |   |   |   |   |   user-id >= 54.5
|   |   |   |   |   |   |   |   |   |   |   |   |   |   is < 0.5
|   |   |   |   |   |   |   |   |   |   |   |   |   |   |   tweet-id < 170418
|   |   |   |   |   |   |   |   |   |   |   |   |   |   |   |   for < 0.5
|   |   |   |   |   |   |   |   |   |   |   |   |   |   |   |   |   user-id < 57 : RightTroll (1/0)
|   |   |   |   |   |   |   |   |   |   |   |   |   |   |   |   |   user-id >= 57 : Other (25/0)
|   |   |   |   |   |   |   |   |   |   |   |   |   |   |   |   for >= 0.5
|   |   |   |   |   |   |   |   |   |   |   |   |   |   |   |   |   user-id < 66 : RightTroll (1/0)
|   |   |   |   |   |   |   |   |   |   |   |   |   |   |   |   |   user-id >= 66 : Other (3/0)
|   |   |   |   |   |   |   |   |   |   |   |   |   |   |   tweet-id >= 170418 : Other (24/0)
|   |   |   |   |   |   |   |   |   |   |   |   |   |   is >= 0.5 : Other (4/0)
|   |   |   |   |   |   |   |   |   |   |   |   of >= 0.5 : Other (259/0)
|   |   |   |   |   |   |   |   |   |   |   a >= 0.5
|   |   |   |   |   |   |   |   |   |   |   |   tweet-id < 1107851.5 : Other (67/0)
|   |   |   |   |   |   |   |   |   |   |   |   tweet-id >= 1107851.5
|   |   |   |   |   |   |   |   |   |   |   |   |   of < 0.5
|   |   |   |   |   |   |   |   |   |   |   |   |   |   user-id < 54.5 : Other (1/0)
|   |   |   |   |   |   |   |   |   |   |   |   |   |   user-id >= 54.5
|   |   |   |   |   |   |   |   |   |   |   |   |   |   |   tweet-id < 1114461 : RightTroll (1/0)
|   |   |   |   |   |   |   |   |   |   |   |   |   |   |   tweet-id >= 1114461 : Other (1/0)
|   |   |   |   |   |   |   |   |   |   |   |   |   of >= 0.5 : Other (3/0)
|   |   |   |   |   |   |   |   for >= 2.5 : LeftTroll (1/0)
|   |   |   |   |   |   user-id >= 73.5
|   |   |   |   |   |   |   user-id < 99.5
|   |   |   |   |   |   |   |   user-id < 86
|   |   |   |   |   |   |   |   |   in < 0.5
|   |   |   |   |   |   |   |   |   |   user-id < 75 : LeftTroll (1784/0)
|   |   |   |   |   |   |   |   |   |   user-id >= 75
|   |   |   |   |   |   |   |   |   |   |   for < 0.5
|   |   |   |   |   |   |   |   |   |   |   |   user-id < 83
|   |   |   |   |   |   |   |   |   |   |   |   |   a < 0.5
|   |   |   |   |   |   |   |   |   |   |   |   |   |   is < 0.5
|   |   |   |   |   |   |   |   |   |   |   |   |   |   |   user-id < 80.5
|   |   |   |   |   |   |   |   |   |   |   |   |   |   |   |   user-id < 78 : RightTroll (21/0)
|   |   |   |   |   |   |   |   |   |   |   |   |   |   |   |   user-id >= 78 : Other (44/0)
|   |   |   |   |   |   |   |   |   |   |   |   |   |   |   user-id >= 80.5 : RightTroll (158/0)
|   |   |   |   |   |   |   |   |   |   |   |   |   |   is >= 0.5 : RightTroll (9/0)
|   |   |   |   |   |   |   |   |   |   |   |   |   a >= 0.5 : RightTroll (28/0)
|   |   |   |   |   |   |   |   |   |   |   |   user-id >= 83 : LeftTroll (1064/0)
|   |   |   |   |   |   |   |   |   |   |   for >= 0.5
|   |   |   |   |   |   |   |   |   |   |   |   is < 0.5
|   |   |   |   |   |   |   |   |   |   |   |   |   user-id < 83 : RightTroll (23/0)
|   |   |   |   |   |   |   |   |   |   |   |   |   user-id >= 83 : LeftTroll (132/0)
|   |   |   |   |   |   |   |   |   |   |   |   is >= 0.5
|   |   |   |   |   |   |   |   |   |   |   |   |   a < 0.5
|   |   |   |   |   |   |   |   |   |   |   |   |   |   user-id < 83 : RightTroll (1/0)
|   |   |   |   |   |   |   |   |   |   |   |   |   |   user-id >= 83 : LeftTroll (12/0)
|   |   |   |   |   |   |   |   |   |   |   |   |   a >= 0.5 : LeftTroll (9/0)
|   |   |   |   |   |   |   |   |   in >= 0.5
|   |   |   |   |   |   |   |   |   |   user-id < 75 : LeftTroll (252/0)
|   |   |   |   |   |   |   |   |   |   user-id >= 75
|   |   |   |   |   |   |   |   |   |   |   user-id < 83 : RightTroll (61/0)
|   |   |   |   |   |   |   |   |   |   |   user-id >= 83 : LeftTroll (190/0)
|   |   |   |   |   |   |   |   user-id >= 86
|   |   |   |   |   |   |   |   |   user-id < 92
|   |   |   |   |   |   |   |   |   |   user-id < 88.5 : RightTroll (1087/0)
|   |   |   |   |   |   |   |   |   |   user-id >= 88.5
|   |   |   |   |   |   |   |   |   |   |   for < 0.5
|   |   |   |   |   |   |   |   |   |   |   |   user-id < 90.5
|   |   |   |   |   |   |   |   |   |   |   |   |   user-id < 89.5 : LeftTroll (2/0)
|   |   |   |   |   |   |   |   |   |   |   |   |   user-id >= 89.5 : Other (545/0)
|   |   |   |   |   |   |   |   |   |   |   |   user-id >= 90.5 : RightTroll (80/0)
|   |   |   |   |   |   |   |   |   |   |   for >= 0.5
|   |   |   |   |   |   |   |   |   |   |   |   in < 0.5 : RightTroll (4/0)
|   |   |   |   |   |   |   |   |   |   |   |   in >= 0.5
|   |   |   |   |   |   |   |   |   |   |   |   |   user-id < 90.5 : Other (1/0)
|   |   |   |   |   |   |   |   |   |   |   |   |   user-id >= 90.5 : RightTroll (1/0)
|   |   |   |   |   |   |   |   |   user-id >= 92
|   |   |   |   |   |   |   |   |   |   tweet-id < 1121992.5
|   |   |   |   |   |   |   |   |   |   |   of < 0.5
|   |   |   |   |   |   |   |   |   |   |   |   for < 0.5
|   |   |   |   |   |   |   |   |   |   |   |   |   is < 0.5
|   |   |   |   |   |   |   |   |   |   |   |   |   |   user-id < 95.5 : LeftTroll (1165/0)
|   |   |   |   |   |   |   |   |   |   |   |   |   |   user-id >= 95.5
|   |   |   |   |   |   |   |   |   |   |   |   |   |   |   tweet-id < 19271
|   |   |   |   |   |   |   |   |   |   |   |   |   |   |   |   tweet-id < 17202
|   |   |   |   |   |   |   |   |   |   |   |   |   |   |   |   |   in < 0.5
|   |   |   |   |   |   |   |   |   |   |   |   |   |   |   |   |   |   tweet-id < 16347 : Other (2/0)
|   |   |   |   |   |   |   |   |   |   |   |   |   |   |   |   |   |   tweet-id >= 16347 : RightTroll (4/0)
|   |   |   |   |   |   |   |   |   |   |   |   |   |   |   |   |   in >= 0.5
|   |   |   |   |   |   |   |   |   |   |   |   |   |   |   |   |   |   tweet-id < 6811 : Other (1/0)
|   |   |   |   |   |   |   |   |   |   |   |   |   |   |   |   |   |   tweet-id >= 6811 : RightTroll (3/0)
|   |   |   |   |   |   |   |   |   |   |   |   |   |   |   |   tweet-id >= 17202
|   |   |   |   |   |   |   |   |   |   |   |   |   |   |   |   |   a < 0.5 : Other (3/0)
|   |   |   |   |   |   |   |   |   |   |   |   |   |   |   |   |   a >= 0.5 : RightTroll (1/0)
|   |   |   |   |   |   |   |   |   |   |   |   |   |   |   tweet-id >= 19271
|   |   |   |   |   |   |   |   |   |   |   |   |   |   |   |   user-id < 97.5 : Other (28/0)
|   |   |   |   |   |   |   |   |   |   |   |   |   |   |   |   user-id >= 97.5 : RightTroll (134/0)
|   |   |   |   |   |   |   |   |   |   |   |   |   is >= 0.5
|   |   |   |   |   |   |   |   |   |   |   |   |   |   a < 0.5
|   |   |   |   |   |   |   |   |   |   |   |   |   |   |   user-id < 95.5 : LeftTroll (95/0)
|   |   |   |   |   |   |   |   |   |   |   |   |   |   |   user-id >= 95.5
|   |   |   |   |   |   |   |   |   |   |   |   |   |   |   |   user-id < 97.5 : Other (1/0)
|   |   |   |   |   |   |   |   |   |   |   |   |   |   |   |   user-id >= 97.5 : RightTroll (12/0)
|   |   |   |   |   |   |   |   |   |   |   |   |   |   a >= 0.5
|   |   |   |   |   |   |   |   |   |   |   |   |   |   |   tweet-id < 117332.5 : LeftTroll (9/0)
|   |   |   |   |   |   |   |   |   |   |   |   |   |   |   tweet-id >= 117332.5
|   |   |   |   |   |   |   |   |   |   |   |   |   |   |   |   tweet-id < 118365 : RightTroll (1/0)
|   |   |   |   |   |   |   |   |   |   |   |   |   |   |   |   tweet-id >= 118365
|   |   |   |   |   |   |   |   |   |   |   |   |   |   |   |   |   tweet-id < 1116505.5
|   |   |   |   |   |   |   |   |   |   |   |   |   |   |   |   |   |   tweet-id < 183558
|   |   |   |   |   |   |   |   |   |   |   |   |   |   |   |   |   |   |   user-id < 97 : LeftTroll (18/0)
|   |   |   |   |   |   |   |   |   |   |   |   |   |   |   |   |   |   |   user-id >= 97 : RightTroll (4/0)
|   |   |   |   |   |   |   |   |   |   |   |   |   |   |   |   |   |   tweet-id >= 183558 : LeftTroll (9/0)
|   |   |   |   |   |   |   |   |   |   |   |   |   |   |   |   |   tweet-id >= 1116505.5
|   |   |   |   |   |   |   |   |   |   |   |   |   |   |   |   |   |   tweet-id < 1117359.5 : RightTroll (1/0)
|   |   |   |   |   |   |   |   |   |   |   |   |   |   |   |   |   |   tweet-id >= 1117359.5
|   |   |   |   |   |   |   |   |   |   |   |   |   |   |   |   |   |   |   user-id < 97 : LeftTroll (2/0)
|   |   |   |   |   |   |   |   |   |   |   |   |   |   |   |   |   |   |   user-id >= 97 : RightTroll (1/0)
|   |   |   |   |   |   |   |   |   |   |   |   for >= 0.5
|   |   |   |   |   |   |   |   |   |   |   |   |   is < 0.5
|   |   |   |   |   |   |   |   |   |   |   |   |   |   a < 1.5
|   |   |   |   |   |   |   |   |   |   |   |   |   |   |   tweet-id < 111077 : LeftTroll (19/0)
|   |   |   |   |   |   |   |   |   |   |   |   |   |   |   tweet-id >= 111077
|   |   |   |   |   |   |   |   |   |   |   |   |   |   |   |   user-id < 97 : LeftTroll (164/0)
|   |   |   |   |   |   |   |   |   |   |   |   |   |   |   |   user-id >= 97 : RightTroll (13/0)
|   |   |   |   |   |   |   |   |   |   |   |   |   |   a >= 1.5 : LeftTroll (5/0)
|   |   |   |   |   |   |   |   |   |   |   |   |   is >= 0.5
|   |   |   |   |   |   |   |   |   |   |   |   |   |   a < 1.5
|   |   |   |   |   |   |   |   |   |   |   |   |   |   |   tweet-id < 185700.5 : LeftTroll (7/0)
|   |   |   |   |   |   |   |   |   |   |   |   |   |   |   tweet-id >= 185700.5
|   |   |   |   |   |   |   |   |   |   |   |   |   |   |   |   user-id < 97 : LeftTroll (5/0)
|   |   |   |   |   |   |   |   |   |   |   |   |   |   |   |   user-id >= 97 : RightTroll (1/0)
|   |   |   |   |   |   |   |   |   |   |   |   |   |   a >= 1.5
|   |   |   |   |   |   |   |   |   |   |   |   |   |   |   user-id < 97 : LeftTroll (1/0)
|   |   |   |   |   |   |   |   |   |   |   |   |   |   |   user-id >= 97 : RightTroll (1/0)
|   |   |   |   |   |   |   |   |   |   |   of >= 0.5
|   |   |   |   |   |   |   |   |   |   |   |   user-id < 95.5 : LeftTroll (242/0)
|   |   |   |   |   |   |   |   |   |   |   |   user-id >= 95.5
|   |   |   |   |   |   |   |   |   |   |   |   |   in < 0.5
|   |   |   |   |   |   |   |   |   |   |   |   |   |   user-id < 97.5 : Other (1/0)
|   |   |   |   |   |   |   |   |   |   |   |   |   |   user-id >= 97.5 : RightTroll (19/0)
|   |   |   |   |   |   |   |   |   |   |   |   |   in >= 0.5 : RightTroll (3/0)
|   |   |   |   |   |   |   |   |   |   tweet-id >= 1121992.5
|   |   |   |   |   |   |   |   |   |   |   tweet-id < 1122042 : Other (1/0)
|   |   |   |   |   |   |   |   |   |   |   tweet-id >= 1122042
|   |   |   |   |   |   |   |   |   |   |   |   tweet-id < 1122366 : LeftTroll (3/0)
|   |   |   |   |   |   |   |   |   |   |   |   tweet-id >= 1122366
|   |   |   |   |   |   |   |   |   |   |   |   |   tweet-id < 1122477.5 : Other (1/0)
|   |   |   |   |   |   |   |   |   |   |   |   |   tweet-id >= 1122477.5 : LeftTroll (3/0)
|   |   |   |   |   |   |   user-id >= 99.5
|   |   |   |   |   |   |   |   user-id < 122
|   |   |   |   |   |   |   |   |   in < 0.5
|   |   |   |   |   |   |   |   |   |   user-id < 120.5
|   |   |   |   |   |   |   |   |   |   |   of < 0.5
|   |   |   |   |   |   |   |   |   |   |   |   is < 0.5
|   |   |   |   |   |   |   |   |   |   |   |   |   tweet-id < 111643.5
|   |   |   |   |   |   |   |   |   |   |   |   |   |   tweet-id < 15901
|   |   |   |   |   |   |   |   |   |   |   |   |   |   |   tweet-id < 14677 : Other (162/0)
|   |   |   |   |   |   |   |   |   |   |   |   |   |   |   tweet-id >= 14677
|   |   |   |   |   |   |   |   |   |   |   |   |   |   |   |   tweet-id < 14691.5 : RightTroll (1/0)
|   |   |   |   |   |   |   |   |   |   |   |   |   |   |   |   tweet-id >= 14691.5 : Other (44/0)
|   |   |   |   |   |   |   |   |   |   |   |   |   |   tweet-id >= 15901
|   |   |   |   |   |   |   |   |   |   |   |   |   |   |   tweet-id < 15946 : LeftTroll (1/0)
|   |   |   |   |   |   |   |   |   |   |   |   |   |   |   tweet-id >= 15946
|   |   |   |   |   |   |   |   |   |   |   |   |   |   |   |   tweet-id < 110533.5 : Other (173/0)
|   |   |   |   |   |   |   |   |   |   |   |   |   |   |   |   tweet-id >= 110533.5
|   |   |   |   |   |   |   |   |   |   |   |   |   |   |   |   |   tweet-id < 110568 : LeftTroll (1/0)
|   |   |   |   |   |   |   |   |   |   |   |   |   |   |   |   |   tweet-id >= 110568 : Other (48/0)
|   |   |   |   |   |   |   |   |   |   |   |   |   tweet-id >= 111643.5
|   |   |   |   |   |   |   |   |   |   |   |   |   |   for < 0.5
|   |   |   |   |   |   |   |   |   |   |   |   |   |   |   user-id < 108.5
|   |   |   |   |   |   |   |   |   |   |   |   |   |   |   |   tweet-id < 1111499.5
|   |   |   |   |   |   |   |   |   |   |   |   |   |   |   |   |   user-id < 102
|   |   |   |   |   |   |   |   |   |   |   |   |   |   |   |   |   |   tweet-id < 146735.5 : Other (13/0)
|   |   |   |   |   |   |   |   |   |   |   |   |   |   |   |   |   |   tweet-id >= 146735.5
|   |   |   |   |   |   |   |   |   |   |   |   |   |   |   |   |   |   |   tweet-id < 151473 : LeftTroll (1/0)
|   |   |   |   |   |   |   |   |   |   |   |   |   |   |   |   |   |   |   tweet-id >= 151473
|   |   |   |   |   |   |   |   |   |   |   |   |   |   |   |   |   |   |   |   tweet-id < 168463
|   |   |   |   |   |   |   |   |   |   |   |   |   |   |   |   |   |   |   |   |   tweet-id < 167030.5 : Other (4/0)
|   |   |   |   |   |   |   |   |   |   |   |   |   |   |   |   |   |   |   |   |   tweet-id >= 167030.5 : LeftTroll (1/0)
|   |   |   |   |   |   |   |   |   |   |   |   |   |   |   |   |   |   |   |   tweet-id >= 168463 : Other (10/0)
|   |   |   |   |   |   |   |   |   |   |   |   |   |   |   |   |   user-id >= 102 : Other (1834/0)
|   |   |   |   |   |   |   |   |   |   |   |   |   |   |   |   tweet-id >= 1111499.5
|   |   |   |   |   |   |   |   |   |   |   |   |   |   |   |   |   tweet-id < 1111529.5 : LeftTroll (1/0)
|   |   |   |   |   |   |   |   |   |   |   |   |   |   |   |   |   tweet-id >= 1111529.5
|   |   |   |   |   |   |   |   |   |   |   |   |   |   |   |   |   |   tweet-id < 1116227
|   |   |   |   |   |   |   |   |   |   |   |   |   |   |   |   |   |   |   tweet-id < 1116208.5 : Other (91/0)
|   |   |   |   |   |   |   |   |   |   |   |   |   |   |   |   |   |   |   tweet-id >= 1116208.5 : LeftTroll (1/0)
|   |   |   |   |   |   |   |   |   |   |   |   |   |   |   |   |   |   tweet-id >= 1116227 : Other (138/0)
|   |   |   |   |   |   |   |   |   |   |   |   |   |   |   user-id >= 108.5
|   |   |   |   |   |   |   |   |   |   |   |   |   |   |   |   user-id < 117
|   |   |   |   |   |   |   |   |   |   |   |   |   |   |   |   |   tweet-id < 132530.5 : RightTroll (9/0)
|   |   |   |   |   |   |   |   |   |   |   |   |   |   |   |   |   tweet-id >= 132530.5
|   |   |   |   |   |   |   |   |   |   |   |   |   |   |   |   |   |   tweet-id < 133114.5 : Other (2/0)
|   |   |   |   |   |   |   |   |   |   |   |   |   |   |   |   |   |   tweet-id >= 133114.5
|   |   |   |   |   |   |   |   |   |   |   |   |   |   |   |   |   |   |   tweet-id < 137441.5 : RightTroll (3/0)
|   |   |   |   |   |   |   |   |   |   |   |   |   |   |   |   |   |   |   tweet-id >= 137441.5
|   |   |   |   |   |   |   |   |   |   |   |   |   |   |   |   |   |   |   |   tweet-id < 159974.5
|   |   |   |   |   |   |   |   |   |   |   |   |   |   |   |   |   |   |   |   |   a < 0.5
|   |   |   |   |   |   |   |   |   |   |   |   |   |   |   |   |   |   |   |   |   |   user-id < 114
|   |   |   |   |   |   |   |   |   |   |   |   |   |   |   |   |   |   |   |   |   |   |   tweet-id < 152117.5
|   |   |   |   |   |   |   |   |   |   |   |   |   |   |   |   |   |   |   |   |   |   |   |   tweet-id < 138458.5 : Other (1/0)
|   |   |   |   |   |   |   |   |   |   |   |   |   |   |   |   |   |   |   |   |   |   |   |   tweet-id >= 138458.5 : RightTroll (2/0)
|   |   |   |   |   |   |   |   |   |   |   |   |   |   |   |   |   |   |   |   |   |   |   tweet-id >= 152117.5
|   |   |   |   |   |   |   |   |   |   |   |   |   |   |   |   |   |   |   |   |   |   |   |   tweet-id < 158122 : Other (3/0)
|   |   |   |   |   |   |   |   |   |   |   |   |   |   |   |   |   |   |   |   |   |   |   |   tweet-id >= 158122
|   |   |   |   |   |   |   |   |   |   |   |   |   |   |   |   |   |   |   |   |   |   |   |   |   tweet-id < 159422.5 : RightTroll (1/0)
|   |   |   |   |   |   |   |   |   |   |   |   |   |   |   |   |   |   |   |   |   |   |   |   |   tweet-id >= 159422.5 : Other (1/0)
|   |   |   |   |   |   |   |   |   |   |   |   |   |   |   |   |   |   |   |   |   |   user-id >= 114 : RightTroll (2/0)
|   |   |   |   |   |   |   |   |   |   |   |   |   |   |   |   |   |   |   |   |   a >= 0.5 : RightTroll (1/0)
|   |   |   |   |   |   |   |   |   |   |   |   |   |   |   |   |   |   |   |   tweet-id >= 159974.5
|   |   |   |   |   |   |   |   |   |   |   |   |   |   |   |   |   |   |   |   |   tweet-id < 162553.5 : RightTroll (3/0)
|   |   |   |   |   |   |   |   |   |   |   |   |   |   |   |   |   |   |   |   |   tweet-id >= 162553.5
|   |   |   |   |   |   |   |   |   |   |   |   |   |   |   |   |   |   |   |   |   |   tweet-id < 164777.5 : Other (1/0)
|   |   |   |   |   |   |   |   |   |   |   |   |   |   |   |   |   |   |   |   |   |   tweet-id >= 164777.5
|   |   |   |   |   |   |   |   |   |   |   |   |   |   |   |   |   |   |   |   |   |   |   tweet-id < 179872.5 : RightTroll (6/0)
|   |   |   |   |   |   |   |   |   |   |   |   |   |   |   |   |   |   |   |   |   |   |   tweet-id >= 179872.5
|   |   |   |   |   |   |   |   |   |   |   |   |   |   |   |   |   |   |   |   |   |   |   |   a < 0.5
|   |   |   |   |   |   |   |   |   |   |   |   |   |   |   |   |   |   |   |   |   |   |   |   |   user-id < 110.5 : RightTroll (4/0)
|   |   |   |   |   |   |   |   |   |   |   |   |   |   |   |   |   |   |   |   |   |   |   |   |   user-id >= 110.5
|   |   |   |   |   |   |   |   |   |   |   |   |   |   |   |   |   |   |   |   |   |   |   |   |   |   tweet-id < 196247 : RightTroll (4/0)
|   |   |   |   |   |   |   |   |   |   |   |   |   |   |   |   |   |   |   |   |   |   |   |   |   |   tweet-id >= 196247
|   |   |   |   |   |   |   |   |   |   |   |   |   |   |   |   |   |   |   |   |   |   |   |   |   |   |   tweet-id < 197427 : Other (1/0)
|   |   |   |   |   |   |   |   |   |   |   |   |   |   |   |   |   |   |   |   |   |   |   |   |   |   |   tweet-id >= 197427
|   |   |   |   |   |   |   |   |   |   |   |   |   |   |   |   |   |   |   |   |   |   |   |   |   |   |   |   tweet-id < 198606.5 : RightTroll (1/0)
|   |   |   |   |   |   |   |   |   |   |   |   |   |   |   |   |   |   |   |   |   |   |   |   |   |   |   |   tweet-id >= 198606.5
|   |   |   |   |   |   |   |   |   |   |   |   |   |   |   |   |   |   |   |   |   |   |   |   |   |   |   |   |   user-id < 114
|   |   |   |   |   |   |   |   |   |   |   |   |   |   |   |   |   |   |   |   |   |   |   |   |   |   |   |   |   |   tweet-id < 656873 : Other (1/0)
|   |   |   |   |   |   |   |   |   |   |   |   |   |   |   |   |   |   |   |   |   |   |   |   |   |   |   |   |   |   tweet-id >= 656873
|   |   |   |   |   |   |   |   |   |   |   |   |   |   |   |   |   |   |   |   |   |   |   |   |   |   |   |   |   |   |   tweet-id < 1116878.5 : RightTroll (2/0)
|   |   |   |   |   |   |   |   |   |   |   |   |   |   |   |   |   |   |   |   |   |   |   |   |   |   |   |   |   |   |   tweet-id >= 1116878.5
|   |   |   |   |   |   |   |   |   |   |   |   |   |   |   |   |   |   |   |   |   |   |   |   |   |   |   |   |   |   |   |   tweet-id < 1118970 : Other (1/0)
|   |   |   |   |   |   |   |   |   |   |   |   |   |   |   |   |   |   |   |   |   |   |   |   |   |   |   |   |   |   |   |   tweet-id >= 1118970 : RightTroll (1/0)
|   |   |   |   |   |   |   |   |   |   |   |   |   |   |   |   |   |   |   |   |   |   |   |   |   |   |   |   |   user-id >= 114 : RightTroll (1/0)
|   |   |   |   |   |   |   |   |   |   |   |   |   |   |   |   |   |   |   |   |   |   |   |   a >= 0.5
|   |   |   |   |   |   |   |   |   |   |   |   |   |   |   |   |   |   |   |   |   |   |   |   |   tweet-id < 182269.5 : Other (1/0)
|   |   |   |   |   |   |   |   |   |   |   |   |   |   |   |   |   |   |   |   |   |   |   |   |   tweet-id >= 182269.5 : RightTroll (1/0)
|   |   |   |   |   |   |   |   |   |   |   |   |   |   |   |   user-id >= 117 : Other (1558/0)
|   |   |   |   |   |   |   |   |   |   |   |   |   |   for >= 0.5
|   |   |   |   |   |   |   |   |   |   |   |   |   |   |   user-id < 106.5 : LeftTroll (1/0)
|   |   |   |   |   |   |   |   |   |   |   |   |   |   |   user-id >= 106.5 : Other (6/0)
|   |   |   |   |   |   |   |   |   |   |   |   is >= 0.5
|   |   |   |   |   |   |   |   |   |   |   |   |   a < 0.5
|   |   |   |   |   |   |   |   |   |   |   |   |   |   user-id < 115
|   |   |   |   |   |   |   |   |   |   |   |   |   |   |   user-id < 108.5 : Other (1/0)
|   |   |   |   |   |   |   |   |   |   |   |   |   |   |   user-id >= 108.5 : RightTroll (1/0)
|   |   |   |   |   |   |   |   |   |   |   |   |   |   user-id >= 115 : Other (7/0)
|   |   |   |   |   |   |   |   |   |   |   |   |   a >= 0.5 : Other (1/0)
|   |   |   |   |   |   |   |   |   |   |   of >= 0.5
|   |   |   |   |   |   |   |   |   |   |   |   a < 2
|   |   |   |   |   |   |   |   |   |   |   |   |   a < 0.5
|   |   |   |   |   |   |   |   |   |   |   |   |   |   tweet-id < 159974.5
|   |   |   |   |   |   |   |   |   |   |   |   |   |   |   for < 0.5
|   |   |   |   |   |   |   |   |   |   |   |   |   |   |   |   tweet-id < 135331 : Other (2/0)
|   |   |   |   |   |   |   |   |   |   |   |   |   |   |   |   tweet-id >= 135331 : RightTroll (2/0)
|   |   |   |   |   |   |   |   |   |   |   |   |   |   |   for >= 0.5 : RightTroll (1/0)
|   |   |   |   |   |   |   |   |   |   |   |   |   |   tweet-id >= 159974.5
|   |   |   |   |   |   |   |   |   |   |   |   |   |   |   user-id < 103 : LeftTroll (1/0)
|   |   |   |   |   |   |   |   |   |   |   |   |   |   |   user-id >= 103 : Other (4/0)
|   |   |   |   |   |   |   |   |   |   |   |   |   a >= 0.5
|   |   |   |   |   |   |   |   |   |   |   |   |   |   user-id < 110.5 : Other (3/0)
|   |   |   |   |   |   |   |   |   |   |   |   |   |   user-id >= 110.5 : RightTroll (1/0)
|   |   |   |   |   |   |   |   |   |   |   |   a >= 2 : LeftTroll (1/0)
|   |   |   |   |   |   |   |   |   |   user-id >= 120.5
|   |   |   |   |   |   |   |   |   |   |   for < 0.5
|   |   |   |   |   |   |   |   |   |   |   |   is < 0.5
|   |   |   |   |   |   |   |   |   |   |   |   |   tweet-id < 193463 : RightTroll (247/0)
|   |   |   |   |   |   |   |   |   |   |   |   |   tweet-id >= 193463
|   |   |   |   |   |   |   |   |   |   |   |   |   |   of < 0.5
|   |   |   |   |   |   |   |   |   |   |   |   |   |   |   tweet-id < 193889 : Other (1/0)
|   |   |   |   |   |   |   |   |   |   |   |   |   |   |   tweet-id >= 193889 : RightTroll (81/0)
|   |   |   |   |   |   |   |   |   |   |   |   |   |   of >= 0.5 : RightTroll (15/0)
|   |   |   |   |   |   |   |   |   |   |   |   is >= 0.5 : RightTroll (54/0)
|   |   |   |   |   |   |   |   |   |   |   for >= 0.5 : RightTroll (64/0)
|   |   |   |   |   |   |   |   |   in >= 0.5
|   |   |   |   |   |   |   |   |   |   user-id < 119.5
|   |   |   |   |   |   |   |   |   |   |   for < 0.5
|   |   |   |   |   |   |   |   |   |   |   |   user-id < 117
|   |   |   |   |   |   |   |   |   |   |   |   |   tweet-id < 140607.5
|   |   |   |   |   |   |   |   |   |   |   |   |   |   tweet-id < 70889 : LeftTroll (1/0)
|   |   |   |   |   |   |   |   |   |   |   |   |   |   tweet-id >= 70889 : RightTroll (2/0)
|   |   |   |   |   |   |   |   |   |   |   |   |   tweet-id >= 140607.5
|   |   |   |   |   |   |   |   |   |   |   |   |   |   user-id < 107 : Other (6/0)
|   |   |   |   |   |   |   |   |   |   |   |   |   |   user-id >= 107
|   |   |   |   |   |   |   |   |   |   |   |   |   |   |   tweet-id < 149273 : Other (1/0)
|   |   |   |   |   |   |   |   |   |   |   |   |   |   |   tweet-id >= 149273
|   |   |   |   |   |   |   |   |   |   |   |   |   |   |   |   tweet-id < 654853.5 : RightTroll (2/0)
|   |   |   |   |   |   |   |   |   |   |   |   |   |   |   |   tweet-id >= 654853.5 : Other (1/0)
|   |   |   |   |   |   |   |   |   |   |   |   user-id >= 117 : Other (18/0)
|   |   |   |   |   |   |   |   |   |   |   for >= 0.5
|   |   |   |   |   |   |   |   |   |   |   |   tweet-id < 156267.5 : Other (2/0)
|   |   |   |   |   |   |   |   |   |   |   |   tweet-id >= 156267.5 : LeftTroll (1/0)
|   |   |   |   |   |   |   |   |   |   user-id >= 119.5 : RightTroll (100/0)
|   |   |   |   |   |   |   |   user-id >= 122
|   |   |   |   |   |   |   |   |   is < 0.5
|   |   |   |   |   |   |   |   |   |   of < 0.5
|   |   |   |   |   |   |   |   |   |   |   for < 0.5
|   |   |   |   |   |   |   |   |   |   |   |   user-id < 125 : LeftTroll (1682/0)
|   |   |   |   |   |   |   |   |   |   |   |   user-id >= 125
|   |   |   |   |   |   |   |   |   |   |   |   |   tweet-id < 151069.5
|   |   |   |   |   |   |   |   |   |   |   |   |   |   a < 0.5
|   |   |   |   |   |   |   |   |   |   |   |   |   |   |   user-id < 151.5
|   |   |   |   |   |   |   |   |   |   |   |   |   |   |   |   in < 0.5
|   |   |   |   |   |   |   |   |   |   |   |   |   |   |   |   |   tweet-id < 15365.5
|   |   |   |   |   |   |   |   |   |   |   |   |   |   |   |   |   |   user-id < 139.5
|   |   |   |   |   |   |   |   |   |   |   |   |   |   |   |   |   |   |   tweet-id < 15231 : Other (37/0)
|   |   |   |   |   |   |   |   |   |   |   |   |   |   |   |   |   |   |   tweet-id >= 15231 : RightTroll (1/0)
|   |   |   |   |   |   |   |   |   |   |   |   |   |   |   |   |   |   user-id >= 139.5 : Other (165/0)
|   |   |   |   |   |   |   |   |   |   |   |   |   |   |   |   |   tweet-id >= 15365.5
|   |   |   |   |   |   |   |   |   |   |   |   |   |   |   |   |   |   user-id < 139
|   |   |   |   |   |   |   |   |   |   |   |   |   |   |   |   |   |   |   tweet-id < 120889.5 : Other (127/0)
|   |   |   |   |   |   |   |   |   |   |   |   |   |   |   |   |   |   |   tweet-id >= 120889.5
|   |   |   |   |   |   |   |   |   |   |   |   |   |   |   |   |   |   |   |   user-id < 136.5
|   |   |   |   |   |   |   |   |   |   |   |   |   |   |   |   |   |   |   |   |   user-id < 132.5 : Other (166/0)
|   |   |   |   |   |   |   |   |   |   |   |   |   |   |   |   |   |   |   |   |   user-id >= 132.5
|   |   |   |   |   |   |   |   |   |   |   |   |   |   |   |   |   |   |   |   |   |   tweet-id < 121057.5 : RightTroll (1/0)
|   |   |   |   |   |   |   |   |   |   |   |   |   |   |   |   |   |   |   |   |   |   tweet-id >= 121057.5 : Other (118/0)
|   |   |   |   |   |   |   |   |   |   |   |   |   |   |   |   |   |   |   |   user-id >= 136.5 : RightTroll (1/0)
|   |   |   |   |   |   |   |   |   |   |   |   |   |   |   |   |   |   user-id >= 139 : Other (1428/0)
|   |   |   |   |   |   |   |   |   |   |   |   |   |   |   |   in >= 0.5 : Other (485/0)
|   |   |   |   |   |   |   |   |   |   |   |   |   |   |   user-id >= 151.5
|   |   |   |   |   |   |   |   |   |   |   |   |   |   |   |   user-id < 161
|   |   |   |   |   |   |   |   |   |   |   |   |   |   |   |   |   tweet-id < 1877.5
|   |   |   |   |   |   |   |   |   |   |   |   |   |   |   |   |   |   user-id < 158.5
|   |   |   |   |   |   |   |   |   |   |   |   |   |   |   |   |   |   |   user-id < 154.5 : LeftTroll (2/0)
|   |   |   |   |   |   |   |   |   |   |   |   |   |   |   |   |   |   |   user-id >= 154.5 : Other (5/0)
|   |   |   |   |   |   |   |   |   |   |   |   |   |   |   |   |   |   user-id >= 158.5 : LeftTroll (12/0)
|   |   |   |   |   |   |   |   |   |   |   |   |   |   |   |   |   tweet-id >= 1877.5
|   |   |   |   |   |   |   |   |   |   |   |   |   |   |   |   |   |   tweet-id < 12058.5
|   |   |   |   |   |   |   |   |   |   |   |   |   |   |   |   |   |   |   user-id < 155
|   |   |   |   |   |   |   |   |   |   |   |   |   |   |   |   |   |   |   |   user-id < 153 : LeftTroll (5/0)
|   |   |   |   |   |   |   |   |   |   |   |   |   |   |   |   |   |   |   |   user-id >= 153 : RightTroll (1/0)
|   |   |   |   |   |   |   |   |   |   |   |   |   |   |   |   |   |   |   user-id >= 155
|   |   |   |   |   |   |   |   |   |   |   |   |   |   |   |   |   |   |   |   user-id < 159 : Other (14/0)
|   |   |   |   |   |   |   |   |   |   |   |   |   |   |   |   |   |   |   |   user-id >= 159 : LeftTroll (3/0)
|   |   |   |   |   |   |   |   |   |   |   |   |   |   |   |   |   |   tweet-id >= 12058.5
|   |   |   |   |   |   |   |   |   |   |   |   |   |   |   |   |   |   |   user-id < 159
|   |   |   |   |   |   |   |   |   |   |   |   |   |   |   |   |   |   |   |   in < 0.5
|   |   |   |   |   |   |   |   |   |   |   |   |   |   |   |   |   |   |   |   |   tweet-id < 13061.5
|   |   |   |   |   |   |   |   |   |   |   |   |   |   |   |   |   |   |   |   |   |   user-id < 154 : LeftTroll (9/0)
|   |   |   |   |   |   |   |   |   |   |   |   |   |   |   |   |   |   |   |   |   |   user-id >= 154 : Other (7/0)
|   |   |   |   |   |   |   |   |   |   |   |   |   |   |   |   |   |   |   |   |   tweet-id >= 13061.5
|   |   |   |   |   |   |   |   |   |   |   |   |   |   |   |   |   |   |   |   |   |   user-id < 152.5 : LeftTroll (191/0)
|   |   |   |   |   |   |   |   |   |   |   |   |   |   |   |   |   |   |   |   |   |   user-id >= 152.5 : Other (534/0)
|   |   |   |   |   |   |   |   |   |   |   |   |   |   |   |   |   |   |   |   in >= 0.5
|   |   |   |   |   |   |   |   |   |   |   |   |   |   |   |   |   |   |   |   |   user-id < 153 : LeftTroll (22/0)
|   |   |   |   |   |   |   |   |   |   |   |   |   |   |   |   |   |   |   |   |   user-id >= 153
|   |   |   |   |   |   |   |   |   |   |   |   |   |   |   |   |   |   |   |   |   |   in < 1.5
|   |   |   |   |   |   |   |   |   |   |   |   |   |   |   |   |   |   |   |   |   |   |   user-id < 155 : RightTroll (2/0)
|   |   |   |   |   |   |   |   |   |   |   |   |   |   |   |   |   |   |   |   |   |   |   user-id >= 155 : Other (12/0)
|   |   |   |   |   |   |   |   |   |   |   |   |   |   |   |   |   |   |   |   |   |   in >= 1.5 : RightTroll (1/0)
|   |   |   |   |   |   |   |   |   |   |   |   |   |   |   |   |   |   |   user-id >= 159 : LeftTroll (336/0)
|   |   |   |   |   |   |   |   |   |   |   |   |   |   |   |   user-id >= 161 : Other (1397/0)
|   |   |   |   |   |   |   |   |   |   |   |   |   |   a >= 0.5
|   |   |   |   |   |   |   |   |   |   |   |   |   |   |   user-id < 150.5 : Other (63/0)
|   |   |   |   |   |   |   |   |   |   |   |   |   |   |   user-id >= 150.5
|   |   |   |   |   |   |   |   |   |   |   |   |   |   |   |   tweet-id < 148859.5
|   |   |   |   |   |   |   |   |   |   |   |   |   |   |   |   |   tweet-id < 15776.5
|   |   |   |   |   |   |   |   |   |   |   |   |   |   |   |   |   |   tweet-id < 6569 : LeftTroll (1/0)
|   |   |   |   |   |   |   |   |   |   |   |   |   |   |   |   |   |   tweet-id >= 6569
|   |   |   |   |   |   |   |   |   |   |   |   |   |   |   |   |   |   |   tweet-id < 14948 : Other (4/0)
|   |   |   |   |   |   |   |   |   |   |   |   |   |   |   |   |   |   |   tweet-id >= 14948
|   |   |   |   |   |   |   |   |   |   |   |   |   |   |   |   |   |   |   |   user-id < 159 : Other (1/0)
|   |   |   |   |   |   |   |   |   |   |   |   |   |   |   |   |   |   |   |   user-id >= 159 : LeftTroll (1/0)
|   |   |   |   |   |   |   |   |   |   |   |   |   |   |   |   |   tweet-id >= 15776.5
|   |   |   |   |   |   |   |   |   |   |   |   |   |   |   |   |   |   in < 0.5
|   |   |   |   |   |   |   |   |   |   |   |   |   |   |   |   |   |   |   user-id < 161.5
|   |   |   |   |   |   |   |   |   |   |   |   |   |   |   |   |   |   |   |   user-id < 158.5
|   |   |   |   |   |   |   |   |   |   |   |   |   |   |   |   |   |   |   |   |   a < 1.5
|   |   |   |   |   |   |   |   |   |   |   |   |   |   |   |   |   |   |   |   |   |   tweet-id < 127618
|   |   |   |   |   |   |   |   |   |   |   |   |   |   |   |   |   |   |   |   |   |   |   tweet-id < 111986.5
|   |   |   |   |   |   |   |   |   |   |   |   |   |   |   |   |   |   |   |   |   |   |   |   tweet-id < 18104 : LeftTroll (2/0)
|   |   |   |   |   |   |   |   |   |   |   |   |   |   |   |   |   |   |   |   |   |   |   |   tweet-id >= 18104 : Other (2/0)
|   |   |   |   |   |   |   |   |   |   |   |   |   |   |   |   |   |   |   |   |   |   |   tweet-id >= 111986.5
|   |   |   |   |   |   |   |   |   |   |   |   |   |   |   |   |   |   |   |   |   |   |   |   user-id < 154.5 : LeftTroll (7/0)
|   |   |   |   |   |   |   |   |   |   |   |   |   |   |   |   |   |   |   |   |   |   |   |   user-id >= 154.5 : Other (1/0)
|   |   |   |   |   |   |   |   |   |   |   |   |   |   |   |   |   |   |   |   |   |   tweet-id >= 127618
|   |   |   |   |   |   |   |   |   |   |   |   |   |   |   |   |   |   |   |   |   |   |   tweet-id < 133107 : Other (3/0)
|   |   |   |   |   |   |   |   |   |   |   |   |   |   |   |   |   |   |   |   |   |   |   tweet-id >= 133107 : LeftTroll (1/0)
|   |   |   |   |   |   |   |   |   |   |   |   |   |   |   |   |   |   |   |   |   a >= 1.5 : LeftTroll (3/0)
|   |   |   |   |   |   |   |   |   |   |   |   |   |   |   |   |   |   |   |   user-id >= 158.5 : LeftTroll (32/0)
|   |   |   |   |   |   |   |   |   |   |   |   |   |   |   |   |   |   |   user-id >= 161.5 : Other (6/0)
|   |   |   |   |   |   |   |   |   |   |   |   |   |   |   |   |   |   in >= 0.5
|   |   |   |   |   |   |   |   |   |   |   |   |   |   |   |   |   |   |   user-id < 155.5
|   |   |   |   |   |   |   |   |   |   |   |   |   |   |   |   |   |   |   |   a < 1.5
|   |   |   |   |   |   |   |   |   |   |   |   |   |   |   |   |   |   |   |   |   user-id < 153 : LeftTroll (4/0)
|   |   |   |   |   |   |   |   |   |   |   |   |   |   |   |   |   |   |   |   |   user-id >= 153 : RightTroll (1/0)
|   |   |   |   |   |   |   |   |   |   |   |   |   |   |   |   |   |   |   |   a >= 1.5 : LeftTroll (1/0)
|   |   |   |   |   |   |   |   |   |   |   |   |   |   |   |   |   |   |   user-id >= 155.5
|   |   |   |   |   |   |   |   |   |   |   |   |   |   |   |   |   |   |   |   tweet-id < 134674 : LeftTroll (4/0)
|   |   |   |   |   |   |   |   |   |   |   |   |   |   |   |   |   |   |   |   tweet-id >= 134674 : Other (2/0)
|   |   |   |   |   |   |   |   |   |   |   |   |   |   |   |   tweet-id >= 148859.5 : Other (4/0)
|   |   |   |   |   |   |   |   |   |   |   |   |   tweet-id >= 151069.5
|   |   |   |   |   |   |   |   |   |   |   |   |   |   tweet-id < 151071 : RightTroll (1/0)
|   |   |   |   |   |   |   |   |   |   |   |   |   |   tweet-id >= 151071
|   |   |   |   |   |   |   |   |   |   |   |   |   |   |   user-id < 151.5
|   |   |   |   |   |   |   |   |   |   |   |   |   |   |   |   user-id < 140
|   |   |   |   |   |   |   |   |   |   |   |   |   |   |   |   |   a < 0.5
|   |   |   |   |   |   |   |   |   |   |   |   |   |   |   |   |   |   in < 0.5
|   |   |   |   |   |   |   |   |   |   |   |   |   |   |   |   |   |   |   tweet-id < 189439
|   |   |   |   |   |   |   |   |   |   |   |   |   |   |   |   |   |   |   |   user-id < 136.5 : Other (319/0)
|   |   |   |   |   |   |   |   |   |   |   |   |   |   |   |   |   |   |   |   user-id >= 136.5 : RightTroll (10/0)
|   |   |   |   |   |   |   |   |   |   |   |   |   |   |   |   |   |   |   tweet-id >= 189439
|   |   |   |   |   |   |   |   |   |   |   |   |   |   |   |   |   |   |   |   user-id < 136.5 : Other (291/0)
|   |   |   |   |   |   |   |   |   |   |   |   |   |   |   |   |   |   |   |   user-id >= 136.5
|   |   |   |   |   |   |   |   |   |   |   |   |   |   |   |   |   |   |   |   |   user-id < 138 : RightTroll (2/0)
|   |   |   |   |   |   |   |   |   |   |   |   |   |   |   |   |   |   |   |   |   user-id >= 138 : Other (1/0)
|   |   |   |   |   |   |   |   |   |   |   |   |   |   |   |   |   |   in >= 0.5 : Other (71/0)
|   |   |   |   |   |   |   |   |   |   |   |   |   |   |   |   |   a >= 0.5
|   |   |   |   |   |   |   |   |   |   |   |   |   |   |   |   |   |   in < 0.5
|   |   |   |   |   |   |   |   |   |   |   |   |   |   |   |   |   |   |   user-id < 136.5 : Other (3/0)
|   |   |   |   |   |   |   |   |   |   |   |   |   |   |   |   |   |   |   user-id >= 136.5 : RightTroll (4/0)
|   |   |   |   |   |   |   |   |   |   |   |   |   |   |   |   |   |   in >= 0.5 : Other (1/0)
|   |   |   |   |   |   |   |   |   |   |   |   |   |   |   |   user-id >= 140 : Other (2926/0)
|   |   |   |   |   |   |   |   |   |   |   |   |   |   |   user-id >= 151.5
|   |   |   |   |   |   |   |   |   |   |   |   |   |   |   |   user-id < 161
|   |   |   |   |   |   |   |   |   |   |   |   |   |   |   |   |   a < 0.5
|   |   |   |   |   |   |   |   |   |   |   |   |   |   |   |   |   |   tweet-id < 1109471
|   |   |   |   |   |   |   |   |   |   |   |   |   |   |   |   |   |   |   in < 0.5
|   |   |   |   |   |   |   |   |   |   |   |   |   |   |   |   |   |   |   |   tweet-id < 1109194.5
|   |   |   |   |   |   |   |   |   |   |   |   |   |   |   |   |   |   |   |   |   user-id < 159
|   |   |   |   |   |   |   |   |   |   |   |   |   |   |   |   |   |   |   |   |   |   tweet-id < 164100.5
|   |   |   |   |   |   |   |   |   |   |   |   |   |   |   |   |   |   |   |   |   |   |   user-id < 152.5 : LeftTroll (46/0)
|   |   |   |   |   |   |   |   |   |   |   |   |   |   |   |   |   |   |   |   |   |   |   user-id >= 152.5
|   |   |   |   |   |   |   |   |   |   |   |   |   |   |   |   |   |   |   |   |   |   |   |   user-id < 155
|   |   |   |   |   |   |   |   |   |   |   |   |   |   |   |   |   |   |   |   |   |   |   |   |   user-id < 153.5 : Other (4/0)
|   |   |   |   |   |   |   |   |   |   |   |   |   |   |   |   |   |   |   |   |   |   |   |   |   user-id >= 153.5 : RightTroll (3/0)
|   |   |   |   |   |   |   |   |   |   |   |   |   |   |   |   |   |   |   |   |   |   |   |   user-id >= 155 : Other (161/0)
|   |   |   |   |   |   |   |   |   |   |   |   |   |   |   |   |   |   |   |   |   |   tweet-id >= 164100.5
|   |   |   |   |   |   |   |   |   |   |   |   |   |   |   |   |   |   |   |   |   |   |   user-id < 152.5 : LeftTroll (211/0)
|   |   |   |   |   |   |   |   |   |   |   |   |   |   |   |   |   |   |   |   |   |   |   user-id >= 152.5
|   |   |   |   |   |   |   |   |   |   |   |   |   |   |   |   |   |   |   |   |   |   |   |   user-id < 155
|   |   |   |   |   |   |   |   |   |   |   |   |   |   |   |   |   |   |   |   |   |   |   |   |   tweet-id < 199612
|   |   |   |   |   |   |   |   |   |   |   |   |   |   |   |   |   |   |   |   |   |   |   |   |   |   tweet-id < 184381.5
|   |   |   |   |   |   |   |   |   |   |   |   |   |   |   |   |   |   |   |   |   |   |   |   |   |   |   user-id < 153.5 : Other (1/0)
